{"learner":{"attributes":{"best_iteration":"699","best_ntree_limit":"700","scikit_learn":"{\"n_estimators\": 700, \"objective\": \"reg:squarederror\", \"max_depth\": 8, \"max_leaves\": null, \"max_bin\": null, \"grow_policy\": null, \"learning_rate\": 0.005, \"verbosity\": null, \"booster\": null, \"tree_method\": null, \"gamma\": 1, \"min_child_weight\": 1.5, \"max_delta_step\": 100, \"subsample\": null, \"sampling_method\": null, \"colsample_bytree\": null, \"colsample_bylevel\": null, \"colsample_bynode\": null, \"reg_alpha\": null, \"reg_lambda\": 1.3, \"scale_pos_weight\": null, \"base_score\": null, \"missing\": NaN, \"num_parallel_tree\": null, \"random_state\": 31, \"n_jobs\": null, \"monotone_constraints\": null, \"interaction_constraints\": null, \"importance_type\": null, \"gpu_id\": null, \"validate_parameters\": null, \"predictor\": null, \"enable_categorical\": false, \"feature_types\": null, \"max_cat_to_onehot\": null, \"max_cat_threshold\": null, \"eval_metric\": null, \"early_stopping_rounds\": null, \"callbacks\": null, \"_estimator_type\": \"regressor\"}"},"feature_names":["words_counts","char_counts","avg_word_len","ml_counts","ml_engineer_counts","analytics_counts","degree_counts","degree_counts_2","degree_counts_3","deep_learning_counts","tf_counts","neural_network_counts","nlp_counts","nlp_counts_2","pyspark_counts","hadoop_counts","data_analysis_counts","lustering_counts","lr_counts","classification_counts","sk_counts","pytorch_counts","cnn_counts","rnn_counts","gans_counts","nltk_counts","spacy_counts","transformer_counts","django_counts","research_counts","ai_counts","algorithm_counts","degree_counts_4","np_counts","pd_counts","plt_counts","sns_counts","keras_counts","bs_counts","bigdata_counts","ds_counts","fe_counts","cv_counts","od_counts","cvision_counts","MongoDB_counts","NoSQL_counts","GraphQL_counts","SQL_counts","Firebase_counts","AWS_counts","Azure_counts","gcp_counts"],"feature_types":["int","int","float","int","int","int","int","int","int","int","int","int","int","int","int","int","int","int","int","int","int","int","int","int","int","int","int","int","int","int","int","int","int","int","int","int","int","int","int","int","int","int","int","int","int","int","int","int","int","int","int","int","int"],"gradient_booster":{"model":{"gbtree_model_param":{"num_parallel_tree":"1","num_trees":"700","size_leaf_vector":"0"},"tree_info":[0,0,0,0,0,0,0,0,0,0,0,0,0,0,0,0,0,0,0,0,0,0,0,0,0,0,0,0,0,0,0,0,0,0,0,0,0,0,0,0,0,0,0,0,0,0,0,0,0,0,0,0,0,0,0,0,0,0,0,0,0,0,0,0,0,0,0,0,0,0,0,0,0,0,0,0,0,0,0,0,0,0,0,0,0,0,0,0,0,0,0,0,0,0,0,0,0,0,0,0,0,0,0,0,0,0,0,0,0,0,0,0,0,0,0,0,0,0,0,0,0,0,0,0,0,0,0,0,0,0,0,0,0,0,0,0,0,0,0,0,0,0,0,0,0,0,0,0,0,0,0,0,0,0,0,0,0,0,0,0,0,0,0,0,0,0,0,0,0,0,0,0,0,0,0,0,0,0,0,0,0,0,0,0,0,0,0,0,0,0,0,0,0,0,0,0,0,0,0,0,0,0,0,0,0,0,0,0,0,0,0,0,0,0,0,0,0,0,0,0,0,0,0,0,0,0,0,0,0,0,0,0,0,0,0,0,0,0,0,0,0,0,0,0,0,0,0,0,0,0,0,0,0,0,0,0,0,0,0,0,0,0,0,0,0,0,0,0,0,0,0,0,0,0,0,0,0,0,0,0,0,0,0,0,0,0,0,0,0,0,0,0,0,0,0,0,0,0,0,0,0,0,0,0,0,0,0,0,0,0,0,0,0,0,0,0,0,0,0,0,0,0,0,0,0,0,0,0,0,0,0,0,0,0,0,0,0,0,0,0,0,0,0,0,0,0,0,0,0,0,0,0,0,0,0,0,0,0,0,0,0,0,0,0,0,0,0,0,0,0,0,0,0,0,0,0,0,0,0,0,0,0,0,0,0,0,0,0,0,0,0,0,0,0,0,0,0,0,0,0,0,0,0,0,0,0,0,0,0,0,0,0,0,0,0,0,0,0,0,0,0,0,0,0,0,0,0,0,0,0,0,0,0,0,0,0,0,0,0,0,0,0,0,0,0,0,0,0,0,0,0,0,0,0,0,0,0,0,0,0,0,0,0,0,0,0,0,0,0,0,0,0,0,0,0,0,0,0,0,0,0,0,0,0,0,0,0,0,0,0,0,0,0,0,0,0,0,0,0,0,0,0,0,0,0,0,0,0,0,0,0,0,0,0,0,0,0,0,0,0,0,0,0,0,0,0,0,0,0,0,0,0,0,0,0,0,0,0,0,0,0,0,0,0,0,0,0,0,0,0,0,0,0,0,0,0,0,0,0,0,0,0,0,0,0,0,0,0,0,0,0,0,0,0,0,0,0,0,0,0,0,0,0,0,0,0,0,0,0,0,0,0,0,0,0,0,0,0,0,0,0,0,0,0,0,0,0,0,0,0,0,0,0,0,0,0,0,0,0,0,0,0,0,0,0,0,0,0,0,0,0,0,0,0,0,0,0,0,0,0,0,0,0,0,0,0,0,0,0,0,0,0,0,0,0,0,0,0,0,0,0,0,0,0,0,0,0,0,0,0,0,0,0,0,0,0,0,0,0,0,0,0,0,0,0,0,0,0,0,0,0,0,0,0,0,0,0,0,0,0],"trees":[{"base_weights":[3.858795E1,1.2030189E1,3.962566E1,1.6254717E1,4.0494236E1,5.439394E0,2.0666668E1],"categories":[],"categories_nodes":[],"categories_segments":[],"categories_sizes":[],"default_left":[1,0,1,1,0,0,0],"id":0,"left_children":[1,-1,3,5,-1,-1,-1],"loss_changes":[1.8964688E3,0E0,9.164219E2,1.0675964E2,0E0,0E0,0E0],"parents":[2147483647,0,0,2,2,3,3],"right_children":[2,-1,4,6,-1,-1,-1],"split_conditions":[5.185E2,6.015094E-2,5E-1,1.5E0,2.0247118E-1,2.719697E-2,1.0333334E-1],"split_indices":[1,0,3,5,0,0,0],"split_type":[0,0,0,0,0,0,0],"sum_hessian":[9E1,4E0,8.6E1,4E0,8.2E1,2E0,2E0],"tree_param":{"num_deleted":"0","num_feature":"53","num_nodes":"7","size_leaf_vector":"0"}},{"base_weights":[3.8400608E1,1.1984792E1,3.9432487E1,1.6205462E1,4.0294926E1,5.422911E0,2.0604042E1],"categories":[],"categories_nodes":[],"categories_segments":[],"categories_sizes":[],"default_left":[1,0,1,1,0,0,0],"id":1,"left_children":[1,-1,3,5,-1,-1,-1],"loss_changes":[1.8742812E3,0E0,8.99875E2,1.0611389E2,0E0,0E0,0E0],"parents":[2147483647,0,0,2,2,3,3],"right_children":[2,-1,4,6,-1,-1,-1],"split_conditions":[5.185E2,5.9923958E-2,5E-1,1.5E0,2.0147462E-1,2.7114555E-2,1.03020206E-1],"split_indices":[1,0,3,5,0,0,0],"split_type":[0,0,0,0,0,0,0],"sum_hessian":[9E1,4E0,8.6E1,4E0,8.2E1,2E0,2E0],"tree_param":{"num_deleted":"0","num_feature":"53","num_nodes":"7","size_leaf_vector":"0"}},{"base_weights":[3.821418E1,1.1939566E1,3.9240265E1,1.6156353E1,4.0096596E1,5.406478E0,2.0541605E1],"categories":[],"categories_nodes":[],"categories_segments":[],"categories_sizes":[],"default_left":[1,0,1,1,0,0,0],"id":2,"left_children":[1,-1,3,5,-1,-1,-1],"loss_changes":[1.8523594E3,0E0,8.835625E2,1.054718E2,0E0,0E0,0E0],"parents":[2147483647,0,0,2,2,3,3],"right_children":[2,-1,4,6,-1,-1,-1],"split_conditions":[5.185E2,5.9697825E-2,5E-1,1.5E0,2.0048298E-1,2.7032388E-2,1.0270802E-1],"split_indices":[1,0,3,5,0,0,0],"split_type":[0,0,0,0,0,0,0],"sum_hessian":[9E1,4E0,8.6E1,4E0,8.2E1,2E0,2E0],"tree_param":{"num_deleted":"0","num_feature":"53","num_nodes":"7","size_leaf_vector":"0"}},{"base_weights":[3.8028664E1,1.1894511E1,3.904898E1,1.6107393E1,3.9899242E1,5.3900948E0,2.0479357E1],"categories":[],"categories_nodes":[],"categories_segments":[],"categories_sizes":[],"default_left":[1,0,1,1,0,0,0],"id":3,"left_children":[1,-1,3,5,-1,-1,-1],"loss_changes":[1.8307188E3,0E0,8.674375E2,1.0483374E2,0E0,0E0,0E0],"parents":[2147483647,0,0,2,2,3,3],"right_children":[2,-1,4,6,-1,-1,-1],"split_conditions":[5.185E2,5.9472553E-2,5E-1,1.5E0,1.9949621E-1,2.6950473E-2,1.0239678E-1],"split_indices":[1,0,3,5,0,0,0],"split_type":[0,0,0,0,0,0,0],"sum_hessian":[9E1,4E0,8.6E1,4E0,8.2E1,2E0,2E0],"tree_param":{"num_deleted":"0","num_feature":"53","num_nodes":"7","size_leaf_vector":"0"}},{"base_weights":[3.7844048E1,1.1849627E1,3.8858635E1,1.6058584E1,3.9702858E1,5.373761E0,2.04173E1],"categories":[],"categories_nodes":[],"categories_segments":[],"categories_sizes":[],"default_left":[1,0,1,1,0,0,0],"id":4,"left_children":[1,-1,3,5,-1,-1,-1],"loss_changes":[1.8092969E3,0E0,8.515469E2,1.041991E2,0E0,0E0,0E0],"parents":[2147483647,0,0,2,2,3,3],"right_children":[2,-1,4,6,-1,-1,-1],"split_conditions":[5.185E2,5.924813E-2,5E-1,1.5E0,1.9851428E-1,2.6868805E-2,1.0208649E-1],"split_indices":[1,0,3,5,0,0,0],"split_type":[0,0,0,0,0,0,0],"sum_hessian":[9E1,4E0,8.6E1,4E0,8.2E1,2E0,2E0],"tree_param":{"num_deleted":"0","num_feature":"53","num_nodes":"7","size_leaf_vector":"0"}},{"base_weights":[3.7660336E1,1.1804911E1,3.8669216E1,1.6009922E1,3.9507442E1,5.3574767E0,2.0355427E1],"categories":[],"categories_nodes":[],"categories_segments":[],"categories_sizes":[],"default_left":[1,0,1,1,0,0,0],"id":5,"left_children":[1,-1,3,5,-1,-1,-1],"loss_changes":[1.7881406E3,0E0,8.3585156E2,1.0356848E2,0E0,0E0,0E0],"parents":[2147483647,0,0,2,2,3,3],"right_children":[2,-1,4,6,-1,-1,-1],"split_conditions":[5.185E2,5.9024554E-2,5E-1,1.5E0,1.9753721E-1,2.6787383E-2,1.0177713E-1],"split_indices":[1,0,3,5,0,0,0],"split_type":[0,0,0,0,0,0,0],"sum_hessian":[9E1,4E0,8.6E1,4E0,8.2E1,2E0,2E0],"tree_param":{"num_deleted":"0","num_feature":"53","num_nodes":"7","size_leaf_vector":"0"}},{"base_weights":[3.7477516E1,1.1760364E1,3.8480724E1,1.5961407E1,3.931299E1,5.3412423E0,2.0293745E1],"categories":[],"categories_nodes":[],"categories_segments":[],"categories_sizes":[],"default_left":[1,0,1,1,0,0,0],"id":6,"left_children":[1,-1,3,5,-1,-1,-1],"loss_changes":[1.7672031E3,0E0,8.204297E2,1.0294177E2,0E0,0E0,0E0],"parents":[2147483647,0,0,2,2,3,3],"right_children":[2,-1,4,6,-1,-1,-1],"split_conditions":[5.185E2,5.8801815E-2,5E-1,1.5E0,1.9656494E-1,2.6706211E-2,1.0146872E-1],"split_indices":[1,0,3,5,0,0,0],"split_type":[0,0,0,0,0,0,0],"sum_hessian":[9E1,4E0,8.6E1,4E0,8.2E1,2E0,2E0],"tree_param":{"num_deleted":"0","num_feature":"53","num_nodes":"7","size_leaf_vector":"0"}},{"base_weights":[3.729559E1,1.1715985E1,3.829316E1,1.5913039E1,3.911949E1,5.3250566E0,2.0232248E1],"categories":[],"categories_nodes":[],"categories_segments":[],"categories_sizes":[],"default_left":[1,0,1,1,0,0,0],"id":7,"left_children":[1,-1,3,5,-1,-1,-1],"loss_changes":[1.7464844E3,0E0,8.0521875E2,1.0231897E2,0E0,0E0,0E0],"parents":[2147483647,0,0,2,2,3,3],"right_children":[2,-1,4,6,-1,-1,-1],"split_conditions":[5.185E2,5.8579925E-2,5E-1,1.5E0,1.9559745E-1,2.6625283E-2,1.0116124E-1],"split_indices":[1,0,3,5,0,0,0],"split_type":[0,0,0,0,0,0,0],"sum_hessian":[9E1,4E0,8.6E1,4E0,8.2E1,2E0,2E0],"tree_param":{"num_deleted":"0","num_feature":"53","num_nodes":"7","size_leaf_vector":"0"}},{"base_weights":[3.711455E1,1.1671774E1,3.8106506E1,4.721273E0,1.4024303E1,1.5864818E1,3.8926945E1,5.30892E0,2.0170938E1],"categories":[],"categories_nodes":[],"categories_segments":[],"categories_sizes":[],"default_left":[1,1,1,1,1,1,0,0,0],"id":8,"left_children":[1,-1,5,-1,-1,7,-1,-1,-1],"loss_changes":[1.7260547E3,5.8532715E-1,7.9021875E2,0E0,0E0,1.01699585E2,0E0,0E0,0E0],"parents":[2147483647,0,0,1,1,2,2,5,5],"right_children":[2,-1,6,-1,-1,8,-1,-1,-1],"split_conditions":[5.185E2,5.8358867E-2,5E-1,2.3606364E-2,7.012152E-2,1.5E0,1.9463472E-1,2.6544599E-2,1.0085469E-1],"split_indices":[1,1,3,2147483647,2147483647,5,0,0,0],"split_type":[0,0,0,0,0,0,0,0,0],"sum_hessian":[9E1,4E0,8.6E1,2E0,2E0,4E0,8.2E1,2E0,2E0],"tree_param":{"num_deleted":"2","num_feature":"53","num_nodes":"9","size_leaf_vector":"0"}},{"base_weights":[3.6934395E1,1.1627729E1,3.7920773E1,4.685904E0,1.39889345E1,1.5816742E1,3.8735348E1,5.2928324E0,2.0109814E1],"categories":[],"categories_nodes":[],"categories_segments":[],"categories_sizes":[],"default_left":[1,1,1,0,0,1,0,0,0],"id":9,"left_children":[1,3,5,-1,-1,7,-1,-1,-1],"loss_changes":[1.7058125E3,1.6566772E0,7.7540625E2,0E0,0E0,1.0108435E2,0E0,0E0,0E0],"parents":[2147483647,0,0,1,1,2,2,5,5],"right_children":[2,4,6,-1,-1,8,-1,-1,-1],"split_conditions":[5.185E2,4.955E2,5E-1,2.342952E-2,6.994467E-2,1.5E0,1.9367674E-1,2.646416E-2,1.00549065E-1],"split_indices":[1,1,3,0,0,5,0,0,0],"split_type":[0,0,0,0,0,0,0,0,0],"sum_hessian":[9E1,4E0,8.6E1,2E0,2E0,4E0,8.2E1,2E0,2E0],"tree_param":{"num_deleted":"0","num_feature":"53","num_nodes":"9","size_leaf_vector":"0"}},{"base_weights":[3.675562E1,1.1592494E1,3.7735943E1,4.671704E0,1.3946544E1,1.5768813E1,3.8544697E1,5.2767935E0,2.0048876E1],"categories":[],"categories_nodes":[],"categories_segments":[],"categories_sizes":[],"default_left":[1,1,1,0,0,1,0,0,0],"id":10,"left_children":[1,3,5,-1,-1,7,-1,-1,-1],"loss_changes":[1.6835E3,1.6466064E0,7.6083594E2,0E0,0E0,1.0047241E2,0E0,0E0,0E0],"parents":[2147483647,0,0,1,1,2,2,5,5],"right_children":[2,4,6,-1,-1,8,-1,-1,-1],"split_conditions":[5.185E2,4.955E2,5E-1,2.3358518E-2,6.973272E-2,1.5E0,1.9272348E-1,2.6383966E-2,1.0024437E-1],"split_indices":[1,1,3,0,0,5,0,0,0],"split_type":[0,0,0,0,0,0,0,0,0],"sum_hessian":[9E1,4E0,8.6E1,2E0,2E0,4E0,8.2E1,2E0,2E0],"tree_param":{"num_deleted":"0","num_feature":"53","num_nodes":"9","size_leaf_vector":"0"}},{"base_weights":[3.6577713E1,1.1557365E1,3.755202E1,4.6575475E0,1.3904282E1,1.5721029E1,3.835498E1,5.260803E0,1.9988123E1],"categories":[],"categories_nodes":[],"categories_segments":[],"categories_sizes":[],"default_left":[1,1,1,0,0,1,0,0,0],"id":11,"left_children":[1,3,5,-1,-1,7,-1,-1,-1],"loss_changes":[1.6614375E3,1.6365967E0,7.4646094E2,0E0,0E0,9.9864746E1,0E0,0E0,0E0],"parents":[2147483647,0,0,1,1,2,2,5,5],"right_children":[2,4,6,-1,-1,8,-1,-1,-1],"split_conditions":[5.185E2,4.955E2,5E-1,2.3287738E-2,6.9521405E-2,1.5E0,1.917749E-1,2.6304016E-2,9.994061E-2],"split_indices":[1,1,3,0,0,5,0,0,0],"split_type":[0,0,0,0,0,0,0,0,0],"sum_hessian":[9E1,4E0,8.6E1,2E0,2E0,4E0,8.2E1,2E0,2E0],"tree_param":{"num_deleted":"0","num_feature":"53","num_nodes":"9","size_leaf_vector":"0"}},{"base_weights":[3.6400673E1,4.6434336E0,3.7044327E1,1.5673389E1,3.7807613E1,5.2448616E0,1.9927551E1,3.399645E1,4.3922134E1,2.63529E1,3.8706055E1,1.7566223E1,3.4497402E1,2.2816307E1,5.3579774E0,1.3592165E1,3.1577944E1,2.1852303E1,5.1151333E0],"categories":[],"categories_nodes":[],"categories_segments":[],"categories_sizes":[],"default_left":[1,0,1,1,1,0,0,1,0,1,0,1,0,1,0,1,0,0,0],"id":12,"left_children":[1,-1,3,5,7,-1,-1,9,-1,11,-1,13,-1,15,-1,17,-1,-1,-1],"loss_changes":[1.642625E3,0E0,6.863125E2,9.9260376E1,4.6625E1,0E0,0E0,7.7266406E2,0E0,1.0943223E3,0E0,8.2171875E2,0E0,2.744546E2,0E0,3.6584583E2,0E0,0E0,0E0],"parents":[2147483647,0,0,2,2,3,3,4,4,7,7,9,9,11,11,13,13,15,15],"right_children":[2,-1,4,6,8,-1,-1,10,-1,12,-1,14,-1,16,-1,18,-1,-1,-1],"split_conditions":[4.955E2,2.3217168E-2,5E-1,1.5E0,5E-1,2.6224308E-2,9.9637754E-2,1.08E2,2.1961066E-1,5E-1,1.9353028E-1,9.45E1,1.72487E-1,9E1,2.6789887E-2,8.25E1,1.5788971E-1,1.0926151E-1,2.5575666E-2],"split_indices":[1,0,3,5,12,0,0,0,0,16,0,0,0,0,0,0,0,0,0],"split_type":[0,0,0,0,0,0,0,0,0,0,0,0,0,0,0,0,0,0,0],"sum_hessian":[9E1,2E0,8.8E1,4E0,8.4E1,2E0,2E0,5.7E1,2.7E1,2.5E1,3.2E1,1.4E1,1.1E1,9E0,5E0,6E0,3E0,2E0,4E0],"tree_param":{"num_deleted":"0","num_feature":"53","num_nodes":"19","size_leaf_vector":"0"}},{"base_weights":[3.623368E1,1.1460422E1,3.719811E1,4.6293626E0,1.3776769E1,1.5625894E1,3.7990128E1,5.2289677E0,1.9867165E1],"categories":[],"categories_nodes":[],"categories_segments":[],"categories_sizes":[],"default_left":[1,1,1,1,1,1,0,0,0],"id":13,"left_children":[1,-1,5,-1,-1,7,-1,-1,-1],"loss_changes":[1.6271484E3,9.5147705E-1,7.1985156E2,0E0,0E0,9.865979E1,0E0,0E0,0E0],"parents":[2147483647,0,0,1,1,2,2,5,5],"right_children":[2,-1,6,-1,-1,8,-1,-1,-1],"split_conditions":[5.185E2,5.7302106E-2,5E-1,2.3146812E-2,6.888384E-2,1.5E0,1.8995063E-1,2.6144838E-2,9.933582E-2],"split_indices":[1,1,3,2147483647,2147483647,5,0,0,0],"split_type":[0,0,0,0,0,0,0,0,0],"sum_hessian":[9E1,4E0,8.6E1,2E0,2E0,4E0,8.2E1,2E0,2E0],"tree_param":{"num_deleted":"2","num_feature":"53","num_nodes":"9","size_leaf_vector":"0"}},{"base_weights":[3.6057823E1,4.594634E0,3.66956E1,1.5578543E1,3.7448425E1,5.2131224E0,1.9806961E1,3.3660587E1,4.3531387E1,2.6074982E1,3.8337547E1,1.7340399E1,3.4184055E1,2.2586073E1,5.1859612E0,1.3410263E1,3.1335264E1,2.1711159E1,4.9524717E0],"categories":[],"categories_nodes":[],"categories_segments":[],"categories_sizes":[],"default_left":[1,0,1,1,1,0,0,1,0,1,0,1,0,1,0,1,0,0,0],"id":14,"left_children":[1,-1,3,5,7,-1,-1,9,-1,11,-1,13,-1,15,-1,17,-1,-1,-1],"loss_changes":[1.6128828E3,0E0,6.6125E2,9.806299E1,6.053125E1,0E0,0E0,7.688047E2,0E0,1.0922168E3,0E0,8.232324E2,0E0,2.8061426E2,0E0,3.7273206E2,0E0,0E0,0E0],"parents":[2147483647,0,0,2,2,3,3,4,4,7,7,9,9,11,11,13,13,15,15],"right_children":[2,-1,4,6,8,-1,-1,10,-1,12,-1,14,-1,16,-1,18,-1,-1,-1],"split_conditions":[4.955E2,2.297317E-2,5E-1,1.5E0,5E-1,2.606561E-2,9.90348E-2,1.08E2,2.1765693E-1,5E-1,1.9168773E-1,9.45E1,1.7092027E-1,9E1,2.5929805E-2,8.25E1,1.5667632E-1,1.08555794E-1,2.4762359E-2],"split_indices":[1,0,3,5,12,0,0,0,0,16,0,0,0,0,0,0,0,0,0],"split_type":[0,0,0,0,0,0,0,0,0,0,0,0,0,0,0,0,0,0,0],"sum_hessian":[9E1,2E0,8.8E1,4E0,8.4E1,2E0,2E0,5.7E1,2.7E1,2.5E1,3.2E1,1.4E1,1.1E1,9E0,5E0,6E0,3E0,2E0,4E0],"tree_param":{"num_deleted":"0","num_feature":"53","num_nodes":"19","size_leaf_vector":"0"}},{"base_weights":[3.58924E1,4.580711E0,3.6526985E1,1.5531336E1,3.7274837E1,5.197325E0,1.974694E1,3.3507416E1,4.3323727E1,2.596867E1,3.815334E1,1.728054E1,3.40312E1,2.2509745E1,5.165382E0,1.3366953E1,3.1225956E1,2.1645367E1,4.9337835E0],"categories":[],"categories_nodes":[],"categories_segments":[],"categories_sizes":[],"default_left":[1,0,1,1,1,0,0,1,0,1,0,1,0,1,0,1,0,0,0],"id":15,"left_children":[1,-1,3,5,7,-1,-1,9,-1,11,-1,13,-1,15,-1,17,-1,-1,-1],"loss_changes":[1.5966094E3,0E0,6.495625E2,9.746936E1,5.6710938E1,0E0,0E0,7.5389453E2,0E0,1.0777695E3,0E0,8.181426E2,0E0,2.7819727E2,0E0,3.7080493E2,0E0,0E0,0E0],"parents":[2147483647,0,0,2,2,3,3,4,4,7,7,9,9,11,11,13,13,15,15],"right_children":[2,-1,4,6,8,-1,-1,10,-1,12,-1,14,-1,16,-1,18,-1,-1,-1],"split_conditions":[4.955E2,2.2903554E-2,5E-1,1.5E0,5E-1,2.5986625E-2,9.87347E-2,1.08E2,2.1661863E-1,5E-1,1.9076669E-1,9.45E1,1.70156E-1,9E1,2.5826909E-2,8.25E1,1.5612978E-1,1.0822683E-1,2.4668917E-2],"split_indices":[1,0,3,5,12,0,0,0,0,16,0,0,0,0,0,0,0,0,0],"split_type":[0,0,0,0,0,0,0,0,0,0,0,0,0,0,0,0,0,0,0],"sum_hessian":[9E1,2E0,8.8E1,4E0,8.4E1,2E0,2E0,5.7E1,2.7E1,2.5E1,3.2E1,1.4E1,1.1E1,9E0,5E0,6E0,3E0,2E0,4E0],"tree_param":{"num_deleted":"0","num_feature":"53","num_nodes":"19","size_leaf_vector":"0"}},{"base_weights":[3.572775E1,1.1294606E1,3.6679058E1,4.56683E0,1.3572992E1,1.5484271E1,3.7455166E1,5.181576E0,1.9687101E1],"categories":[],"categories_nodes":[],"categories_segments":[],"categories_sizes":[],"default_left":[1,1,1,1,1,1,0,0,0],"id":16,"left_children":[1,-1,5,-1,-1,7,-1,-1,-1],"loss_changes":[1.5835703E3,6.59729E-1,6.820781E2,0E0,0E0,9.687927E1,0E0,0E0,0E0],"parents":[2147483647,0,0,1,1,2,2,5,5],"right_children":[2,-1,6,-1,-1,8,-1,-1,-1],"split_conditions":[5.185E2,5.647303E-2,5E-1,2.283415E-2,6.786496E-2,1.5E0,1.8727583E-1,2.5907878E-2,9.8435506E-2],"split_indices":[1,1,3,2147483647,2147483647,5,0,0,0],"split_type":[0,0,0,0,0,0,0,0,0],"sum_hessian":[9E1,4E0,8.6E1,2E0,2E0,4E0,8.2E1,2E0,2E0],"tree_param":{"num_deleted":"2","num_feature":"53","num_nodes":"9","size_leaf_vector":"0"}},{"base_weights":[3.5554348E1,4.532604E0,3.618314E1,1.5437349E1,3.692071E1,5.165874E0,1.9627443E1,3.3176334E1,4.2938385E1,2.5694729E1,3.7790054E1,1.7058075E1,3.372218E1,2.2282734E1,4.9962525E0,1.2940747E1,3.612411E1,1.31877775E1,3.098637E1,2.150591E1,4.773825E0],"categories":[],"categories_nodes":[],"categories_segments":[],"categories_sizes":[],"default_left":[1,0,1,1,1,0,0,1,0,1,0,1,1,1,0,0,0,1,0,0,0],"id":17,"left_children":[1,-1,3,5,7,-1,-1,9,-1,11,-1,13,15,17,-1,-1,-1,19,-1,-1,-1],"loss_changes":[1.5677266E3,0E0,6.2547656E2,9.629309E1,7.0109375E1,0E0,0E0,7.5009375E2,0E0,1.075582E3,0E0,8.194595E2,6.2470703E0,2.8410596E2,0E0,0E0,0E0,3.7745032E2,0E0,0E0,0E0],"parents":[2147483647,0,0,2,2,3,3,4,4,7,7,9,9,11,11,12,12,13,13,17,17],"right_children":[2,-1,4,6,8,-1,-1,10,-1,12,-1,14,16,18,-1,-1,-1,20,-1,-1,-1],"split_conditions":[4.955E2,2.2663021E-2,5E-1,1.5E0,5E-1,2.582937E-2,9.8137215E-2,1.08E2,2.1469192E-1,5E-1,1.8895027E-1,9.45E1,7.061982E0,9E1,2.4981262E-2,6.470373E-2,1.8062055E-1,8.25E1,1.5493184E-1,1.0752955E-1,2.3869125E-2],"split_indices":[1,0,3,5,12,0,0,0,0,16,0,0,2,0,0,0,0,0,0,0,0],"split_type":[0,0,0,0,0,0,0,0,0,0,0,0,0,0,0,0,0,0,0,0,0],"sum_hessian":[9E1,2E0,8.8E1,4E0,8.4E1,2E0,2E0,5.7E1,2.7E1,2.5E1,3.2E1,1.4E1,1.1E1,9E0,5E0,2E0,9E0,6E0,3E0,2E0,4E0],"tree_param":{"num_deleted":"0","num_feature":"53","num_nodes":"21","size_leaf_vector":"0"}},{"base_weights":[3.5392338E1,4.518869E0,3.601801E1,1.5390569E1,3.675074E1,5.15022E0,1.9567966E1,3.3027077E1,4.273356E1,2.559377E1,3.7608482E1,1.6999237E1,3.35795E1,2.220746E1,4.976426E0,1.2901532E1,3.596629E1,1.3145239E1,3.0878279E1,2.1440742E1,4.7558107E0],"categories":[],"categories_nodes":[],"categories_segments":[],"categories_sizes":[],"default_left":[1,0,1,1,1,0,0,1,0,1,0,1,1,1,0,0,0,1,0,0,0],"id":18,"left_children":[1,-1,3,5,7,-1,-1,9,-1,11,-1,13,15,17,-1,-1,-1,19,-1,-1,-1],"loss_changes":[1.5519922E3,0E0,6.144297E2,9.571033E1,6.553125E1,0E0,0E0,7.3410156E2,0E0,1.0629863E3,0E0,8.1438086E2,3.8271484E0,2.8166797E2,0E0,0E0,0E0,3.754817E2,0E0,0E0,0E0],"parents":[2147483647,0,0,2,2,3,3,4,4,7,7,9,9,11,11,12,12,13,13,17,17],"right_children":[2,-1,4,6,8,-1,-1,10,-1,12,-1,14,16,18,-1,-1,-1,20,-1,-1,-1],"split_conditions":[4.955E2,2.2594344E-2,5E-1,1.5E0,5E-1,2.5751099E-2,9.783983E-2,1.08E2,2.136678E-1,5E-1,1.880424E-1,9.45E1,7.061982E0,9E1,2.488213E-2,6.4507656E-2,1.7983145E-1,8.25E1,1.543914E-1,1.0720371E-1,2.3779053E-2],"split_indices":[1,0,3,5,12,0,0,0,0,16,0,0,2,0,0,0,0,0,0,0,0],"split_type":[0,0,0,0,0,0,0,0,0,0,0,0,0,0,0,0,0,0,0,0,0],"sum_hessian":[9E1,2E0,8.8E1,4E0,8.4E1,2E0,2E0,5.7E1,2.7E1,2.5E1,3.2E1,1.4E1,1.1E1,9E0,5E0,2E0,9E0,6E0,3E0,2E0,4E0],"tree_param":{"num_deleted":"0","num_feature":"53","num_nodes":"21","size_leaf_vector":"0"}},{"base_weights":[3.5231075E1,4.505175E0,3.585364E1,1.534393E1,3.6581562E1,5.134613E0,1.9508669E1,3.28785E1,4.2529705E1,2.5493214E1,3.742778E1,1.6940601E1,3.3437424E1,2.213244E1,4.956679E0,1.2862437E1,3.5809155E1,1.31028385E1,3.0770563E1,2.137577E1,4.737864E0],"categories":[],"categories_nodes":[],"categories_segments":[],"categories_sizes":[],"default_left":[1,0,1,1,1,0,0,1,0,1,0,1,1,1,0,0,0,1,0,0,0],"id":19,"left_children":[1,-1,3,5,7,-1,-1,9,-1,11,-1,13,15,17,-1,-1,-1,19,-1,-1,-1],"loss_changes":[1.5364609E3,0E0,6.035078E2,9.51311E1,6.1046875E1,0E0,0E0,7.1834375E2,0E0,1.0505352E3,0E0,8.0933057E2,1.4482422E0,2.7925146E2,0E0,0E0,0E0,3.735227E2,0E0,0E0,0E0],"parents":[2147483647,0,0,2,2,3,3,4,4,7,7,9,9,11,11,12,12,13,13,17,17],"right_children":[2,-1,4,6,8,-1,-1,10,-1,12,-1,14,16,18,-1,-1,-1,20,-1,-1,-1],"split_conditions":[4.955E2,2.2525875E-2,5E-1,1.5E0,5E-1,2.5673065E-2,9.7543344E-2,1.08E2,2.1264853E-1,5E-1,1.871389E-1,9.45E1,7.061982E0,9E1,2.4783393E-2,6.431218E-2,1.7904577E-1,8.25E1,1.538528E-1,1.0687885E-1,2.368932E-2],"split_indices":[1,0,3,5,12,0,0,0,0,16,0,0,2,0,0,0,0,0,0,0,0],"split_type":[0,0,0,0,0,0,0,0,0,0,0,0,0,0,0,0,0,0,0,0,0],"sum_hessian":[9E1,2E0,8.8E1,4E0,8.4E1,2E0,2E0,5.7E1,2.7E1,2.5E1,3.2E1,1.4E1,1.1E1,9E0,5E0,2E0,9E0,6E0,3E0,2E0,4E0],"tree_param":{"num_deleted":"0","num_feature":"53","num_nodes":"21","size_leaf_vector":"0"}},{"base_weights":[3.5070557E1,4.4915233E0,3.569003E1,1.5297434E1,3.641317E1,5.119054E0,1.9449553E1,3.2730606E1,4.2326824E1,2.5393063E1,3.7247948E1,1.6882172E1,3.329596E1,2.2057676E1,4.9370093E0,1.3060576E1,3.0663223E1,2.1310995E1,4.7199855E0],"categories":[],"categories_nodes":[],"categories_segments":[],"categories_sizes":[],"default_left":[1,0,1,1,1,0,0,1,0,1,0,1,0,1,0,1,0,0,0],"id":20,"left_children":[1,-1,3,5,7,-1,-1,9,-1,11,-1,13,-1,15,-1,17,-1,-1,-1],"loss_changes":[1.5210781E3,0E0,5.927656E2,9.455542E1,5.6601562E1,0E0,0E0,7.0283594E2,0E0,1.0382168E3,0E0,8.043125E2,0E0,2.7685352E2,0E0,3.715736E2,0E0,0E0,0E0],"parents":[2147483647,0,0,2,2,3,3,4,4,7,7,9,9,11,11,13,13,15,15],"right_children":[2,-1,4,6,8,-1,-1,10,-1,12,-1,14,-1,16,-1,18,-1,-1,-1],"split_conditions":[4.955E2,2.2457616E-2,5E-1,1.5E0,5E-1,2.5595268E-2,9.724776E-2,1.08E2,2.1163411E-1,5E-1,1.8623973E-1,9.45E1,1.664798E-1,9E1,2.4685046E-2,8.25E1,1.5331611E-1,1.0655497E-1,2.3599926E-2],"split_indices":[1,0,3,5,12,0,0,0,0,16,0,0,0,0,0,0,0,0,0],"split_type":[0,0,0,0,0,0,0,0,0,0,0,0,0,0,0,0,0,0,0],"sum_hessian":[9E1,2E0,8.8E1,4E0,8.4E1,2E0,2E0,5.7E1,2.7E1,2.5E1,3.2E1,1.4E1,1.1E1,9E0,5E0,6E0,3E0,2E0,4E0],"tree_param":{"num_deleted":"0","num_feature":"53","num_nodes":"19","size_leaf_vector":"0"}},{"base_weights":[3.4909695E1,4.4779124E0,3.552607E1,1.5251078E1,3.62444E1,5.103542E0,1.9390614E1,3.2581688E1,4.2124912E1,2.5289557E1,3.7068977E1,1.6823944E1,3.3147076E1,2.1983166E1,4.917418E0,1.2722563E1,3.550724E1,1.3018452E1,3.055626E1,2.1246416E1,4.702174E0],"categories":[],"categories_nodes":[],"categories_segments":[],"categories_sizes":[],"default_left":[1,0,1,1,1,0,0,1,0,1,0,1,1,1,0,0,0,1,0,0,0],"id":21,"left_children":[1,-1,3,5,7,-1,-1,9,-1,11,-1,13,15,17,-1,-1,-1,19,-1,-1,-1],"loss_changes":[1.5057344E3,0E0,5.820078E2,9.39834E1,5.2984375E1,0E0,0E0,6.889922E2,0E0,1.0244746E3,0E0,7.993247E2,5.6572266E0,2.744756E2,0E0,0E0,0E0,3.6963464E2,0E0,0E0,0E0],"parents":[2147483647,0,0,2,2,3,3,4,4,7,7,9,9,11,11,12,12,13,13,17,17],"right_children":[2,-1,4,6,8,-1,-1,10,-1,12,-1,14,16,18,-1,-1,-1,20,-1,-1,-1],"split_conditions":[4.955E2,2.2389561E-2,5E-1,1.5E0,5E-1,2.551771E-2,9.6953064E-2,1.08E2,2.1062456E-1,5E-1,1.8534489E-1,9.45E1,7.061982E0,9E1,2.458709E-2,6.361281E-2,1.775362E-1,8.25E1,1.527813E-1,1.0623208E-1,2.351087E-2],"split_indices":[1,0,3,5,12,0,0,0,0,16,0,0,2,0,0,0,0,0,0,0,0],"split_type":[0,0,0,0,0,0,0,0,0,0,0,0,0,0,0,0,0,0,0,0,0],"sum_hessian":[9E1,2E0,8.8E1,4E0,8.4E1,2E0,2E0,5.7E1,2.7E1,2.5E1,3.2E1,1.4E1,1.1E1,9E0,5E0,2E0,9E0,6E0,3E0,2E0,4E0],"tree_param":{"num_deleted":"0","num_feature":"53","num_nodes":"21","size_leaf_vector":"0"}},{"base_weights":[3.4750656E1,4.464343E0,3.5363968E1,1.5204863E1,3.6077568E1,5.088076E0,1.9331856E1,3.243514E1,4.192396E1,2.519021E1,3.689087E1,1.6765919E1,3.3006824E1,2.1908909E1,4.8979044E0,1.268401E1,3.535211E1,1.2976464E1,3.0449669E1,2.1182034E1,4.68443E0],"categories":[],"categories_nodes":[],"categories_segments":[],"categories_sizes":[],"default_left":[1,0,1,1,1,0,0,1,0,1,0,1,1,1,0,0,0,1,0,0,0],"id":22,"left_children":[1,-1,3,5,7,-1,-1,9,-1,11,-1,13,15,17,-1,-1,-1,19,-1,-1,-1],"loss_changes":[1.4906797E3,0E0,5.715078E2,9.3414795E1,4.871875E1,0E0,0E0,6.739336E2,0E0,1.0124336E3,0E0,7.9436816E2,3.3242188E0,2.721172E2,0E0,0E0,0E0,3.6770496E2,0E0,0E0,0E0],"parents":[2147483647,0,0,2,2,3,3,4,4,7,7,9,9,11,11,12,12,13,13,17,17],"right_children":[2,-1,4,6,8,-1,-1,10,-1,12,-1,14,16,18,-1,-1,-1,20,-1,-1,-1],"split_conditions":[4.955E2,2.2321714E-2,5E-1,1.5E0,5E-1,2.544038E-2,9.665928E-2,1.08E2,2.096198E-1,5E-1,1.8445434E-1,9.45E1,7.061982E0,9E1,2.4489522E-2,6.342005E-2,1.7676055E-1,8.25E1,1.5224834E-1,1.0591017E-1,2.342215E-2],"split_indices":[1,0,3,5,12,0,0,0,0,16,0,0,2,0,0,0,0,0,0,0,0],"split_type":[0,0,0,0,0,0,0,0,0,0,0,0,0,0,0,0,0,0,0,0,0],"sum_hessian":[9E1,2E0,8.8E1,4E0,8.4E1,2E0,2E0,5.7E1,2.7E1,2.5E1,3.2E1,1.4E1,1.1E1,9E0,5E0,2E0,9E0,6E0,3E0,2E0,4E0],"tree_param":{"num_deleted":"0","num_feature":"53","num_nodes":"21","size_leaf_vector":"0"}},{"base_weights":[3.4592346E1,4.450815E0,3.5202614E1,1.5158788E1,3.591151E1,5.0726576E0,1.9273273E1,3.2289253E1,4.1723972E1,2.5091259E1,3.6713615E1,1.6708096E1,3.2867176E1,2.1834904E1,4.878468E0,1.2645574E1,3.519766E1,1.2934613E1,3.0343449E1,2.1117844E1,4.666753E0],"categories":[],"categories_nodes":[],"categories_segments":[],"categories_sizes":[],"default_left":[1,0,1,1,1,0,0,1,0,1,0,1,1,1,0,0,0,1,0,0,0],"id":23,"left_children":[1,-1,3,5,7,-1,-1,9,-1,11,-1,13,15,17,-1,-1,-1,19,-1,-1,-1],"loss_changes":[1.4757344E3,0E0,5.611719E2,9.2849365E1,4.4507812E1,0E0,0E0,6.591094E2,0E0,1.0005215E3,0E0,7.894414E2,1.0273438E0,2.6977832E2,0E0,0E0,0E0,3.657849E2,0E0,0E0,0E0],"parents":[2147483647,0,0,2,2,3,3,4,4,7,7,9,9,11,11,12,12,13,13,17,17],"right_children":[2,-1,4,6,8,-1,-1,10,-1,12,-1,14,16,18,-1,-1,-1,20,-1,-1,-1],"split_conditions":[4.955E2,2.2254076E-2,5E-1,1.5E0,5E-1,2.5363287E-2,9.636637E-2,1.08E2,2.0861986E-1,5E-1,1.8356808E-1,9.45E1,7.061982E0,9E1,2.439234E-2,6.322787E-2,1.7598829E-1,8.25E1,1.5171725E-1,1.0558922E-1,2.3333764E-2],"split_indices":[1,0,3,5,12,0,0,0,0,16,0,0,2,0,0,0,0,0,0,0,0],"split_type":[0,0,0,0,0,0,0,0,0,0,0,0,0,0,0,0,0,0,0,0,0],"sum_hessian":[9E1,2E0,8.8E1,4E0,8.4E1,2E0,2E0,5.7E1,2.7E1,2.5E1,3.2E1,1.4E1,1.1E1,9E0,5E0,2E0,9E0,6E0,3E0,2E0,4E0],"tree_param":{"num_deleted":"0","num_feature":"53","num_nodes":"21","size_leaf_vector":"0"}},{"base_weights":[3.443477E1,4.4373274E0,3.5042007E1,1.5112852E1,3.5746227E1,5.0572863E0,1.921487E1,3.214404E1,4.1524937E1,2.4992706E1,3.6537216E1,1.6650473E1,3.2728123E1,2.1761148E1,4.859109E0,1.28928995E1,3.0237598E1,2.1053852E1,4.6491423E0],"categories":[],"categories_nodes":[],"categories_segments":[],"categories_sizes":[],"default_left":[1,0,1,1,1,0,0,1,0,1,0,1,0,1,0,1,0,0,0],"id":24,"left_children":[1,-1,3,5,7,-1,-1,9,-1,11,-1,13,-1,15,-1,17,-1,-1,-1],"loss_changes":[1.4609453E3,0E0,5.509844E2,9.228735E1,4.0398438E1,0E0,0E0,6.445E2,0E0,9.887363E2,0E0,7.8454395E2,0E0,2.674585E2,0E0,3.6387415E2,0E0,0E0,0E0],"parents":[2147483647,0,0,2,2,3,3,4,4,7,7,9,9,11,11,13,13,15,15],"right_children":[2,-1,4,6,8,-1,-1,10,-1,12,-1,14,-1,16,-1,18,-1,-1,-1],"split_conditions":[4.955E2,2.2186637E-2,5E-1,1.5E0,5E-1,2.528643E-2,9.607435E-2,1.08E2,2.0762467E-1,5E-1,1.8268608E-1,9.45E1,1.636406E-1,9E1,2.4295544E-2,8.25E1,1.5118799E-1,1.0526926E-1,2.324571E-2],"split_indices":[1,0,3,5,12,0,0,0,0,16,0,0,0,0,0,0,0,0,0],"split_type":[0,0,0,0,0,0,0,0,0,0,0,0,0,0,0,0,0,0,0],"sum_hessian":[9E1,2E0,8.8E1,4E0,8.4E1,2E0,2E0,5.7E1,2.7E1,2.5E1,3.2E1,1.4E1,1.1E1,9E0,5E0,6E0,3E0,2E0,4E0],"tree_param":{"num_deleted":"0","num_feature":"53","num_nodes":"19","size_leaf_vector":"0"}},{"base_weights":[3.4276855E1,4.423881E0,3.4881054E1,1.5067056E1,3.558057E1,5.041961E0,1.9156643E1,3.199782E1,4.1326847E1,2.4890858E1,3.636166E1,1.659305E1,3.258178E1,2.1687645E1,4.839827E0,1.2508078E1,3.4900898E1,1.2851321E1,3.0132118E1,2.0990051E1,4.6315985E0],"categories":[],"categories_nodes":[],"categories_segments":[],"categories_sizes":[],"default_left":[1,0,1,1,1,0,0,1,0,1,0,1,1,1,0,0,0,1,0,0,0],"id":25,"left_children":[1,-1,3,5,7,-1,-1,9,-1,11,-1,13,15,17,-1,-1,-1,19,-1,-1,-1],"loss_changes":[1.4461953E3,0E0,5.407969E2,9.1729126E1,3.7039062E1,0E0,0E0,6.314961E2,0E0,9.75584E2,0E0,7.796797E2,5.1015625E0,2.651577E2,0E0,0E0,0E0,3.619734E2,0E0,0E0,0E0],"parents":[2147483647,0,0,2,2,3,3,4,4,7,7,9,9,11,11,12,12,13,13,17,17],"right_children":[2,-1,4,6,8,-1,-1,10,-1,12,-1,14,16,18,-1,-1,-1,20,-1,-1,-1],"split_conditions":[4.955E2,2.2119405E-2,5E-1,1.5E0,5E-1,2.5209805E-2,9.578321E-2,1.08E2,2.0663422E-1,5E-1,1.818083E-1,9.45E1,7.061982E0,9E1,2.4199136E-2,6.254039E-2,1.7450449E-1,8.25E1,1.5066059E-1,1.0495026E-1,2.3157991E-2],"split_indices":[1,0,3,5,12,0,0,0,0,16,0,0,2,0,0,0,0,0,0,0,0],"split_type":[0,0,0,0,0,0,0,0,0,0,0,0,0,0,0,0,0,0,0,0,0],"sum_hessian":[9E1,2E0,8.8E1,4E0,8.4E1,2E0,2E0,5.7E1,2.7E1,2.5E1,3.2E1,1.4E1,1.1E1,9E0,5E0,2E0,9E0,6E0,3E0,2E0,4E0],"tree_param":{"num_deleted":"0","num_feature":"53","num_nodes":"21","size_leaf_vector":"0"}},{"base_weights":[3.4120728E1,4.4104753E0,3.4721924E1,1.5021398E1,3.5416817E1,5.0266824E0,1.9098593E1,1.3013748E1,3.575161E1],"categories":[],"categories_nodes":[],"categories_segments":[],"categories_sizes":[],"default_left":[1,0,1,1,1,0,0,0,0],"id":26,"left_children":[1,-1,3,5,7,-1,-1,-1,-1],"loss_changes":[1.4317031E3,0E0,5.308672E2,9.117383E1,3.4953125E1,0E0,0E0,0E0,0E0],"parents":[2147483647,0,0,2,2,3,3,4,4],"right_children":[2,-1,4,6,8,-1,-1,-1,-1],"split_conditions":[4.955E2,2.2052376E-2,5E-1,1.5E0,5.185E2,2.513341E-2,9.549296E-2,6.506874E-2,1.7875804E-1],"split_indices":[1,0,3,5,1,0,0,0,0],"split_type":[0,0,0,0,0,0,0,0,0],"sum_hessian":[9E1,2E0,8.8E1,4E0,8.4E1,2E0,2E0,2E0,8.2E1],"tree_param":{"num_deleted":"0","num_feature":"53","num_nodes":"9","size_leaf_vector":"0"}},{"base_weights":[3.3955627E1,4.39711E0,3.4553623E1,1.4975878E1,3.524345E1,5.01145E0,1.9040718E1,3.1683054E1,4.095916E1,2.4631819E1,3.601517E1,1.6379688E1,3.22933E1,2.1469233E1,4.6787496E0,1.2396288E1,3.459222E1,1.2678528E1,2.9902292E1,2.0852558E1,4.479209E0],"categories":[],"categories_nodes":[],"categories_segments":[],"categories_sizes":[],"default_left":[1,0,1,1,1,0,0,1,0,1,0,1,1,1,0,0,0,1,0,0,0],"id":27,"left_children":[1,-1,3,5,7,-1,-1,9,-1,11,-1,13,15,17,-1,-1,-1,19,-1,-1,-1],"loss_changes":[1.4162812E3,0E0,5.19875E2,9.062207E1,4.884375E1,0E0,0E0,6.276172E2,0E0,9.751367E2,0E0,7.8056934E2,5.1621094E0,2.707124E2,0E0,0E0,0E0,3.6783325E2,0E0,0E0,0E0],"parents":[2147483647,0,0,2,2,3,3,4,4,7,7,9,9,11,11,12,12,13,13,17,17],"right_children":[2,-1,4,6,8,-1,-1,10,-1,12,-1,14,16,18,-1,-1,-1,20,-1,-1,-1],"split_conditions":[4.955E2,2.198555E-2,5E-1,1.5E0,5E-1,2.5057249E-2,9.5203586E-2,1.08E2,2.047958E-1,5E-1,1.8007585E-1,9.45E1,7.061982E0,9E1,2.3393746E-2,6.198144E-2,1.729611E-1,8.25E1,1.4951146E-1,1.0426279E-1,2.2396045E-2],"split_indices":[1,0,3,5,12,0,0,0,0,16,0,0,2,0,0,0,0,0,0,0,0],"split_type":[0,0,0,0,0,0,0,0,0,0,0,0,0,0,0,0,0,0,0,0,0],"sum_hessian":[9E1,2E0,8.8E1,4E0,8.4E1,2E0,2E0,5.7E1,2.7E1,2.5E1,3.2E1,1.4E1,1.1E1,9E0,5E0,2E0,9E0,6E0,3E0,2E0,4E0],"tree_param":{"num_deleted":"0","num_feature":"53","num_nodes":"21","size_leaf_vector":"0"}},{"base_weights":[3.3800964E1,4.3837857E0,3.439599E1,1.4930497E1,3.508124E1,4.996264E0,1.8983019E1,3.1540571E1,4.076377E1,2.453508E1,3.5842125E1,1.6323242E1,3.2156666E1,2.1396744E1,4.6601834E0,1.2358723E1,3.444109E1,1.2637691E1,2.979798E1,2.078937E1,4.462306E0],"categories":[],"categories_nodes":[],"categories_segments":[],"categories_sizes":[],"default_left":[1,0,1,1,1,0,0,1,0,1,0,1,1,1,0,0,0,1,0,0,0],"id":28,"left_children":[1,-1,3,5,7,-1,-1,9,-1,11,-1,13,15,17,-1,-1,-1,19,-1,-1,-1],"loss_changes":[1.4021094E3,0E0,5.102422E2,9.007361E1,4.4796875E1,0E0,0E0,6.136367E2,0E0,9.636719E2,0E0,7.757129E2,2.9472656E0,2.6839502E2,0E0,0E0,0E0,3.6589575E2,0E0,0E0,0E0],"parents":[2147483647,0,0,2,2,3,3,4,4,7,7,9,9,11,11,12,12,13,13,17,17],"right_children":[2,-1,4,6,8,-1,-1,10,-1,12,-1,14,16,18,-1,-1,-1,20,-1,-1,-1],"split_conditions":[4.955E2,2.1918928E-2,5E-1,1.5E0,5E-1,2.498132E-2,9.491509E-2,1.08E2,2.0381886E-1,5E-1,1.7921062E-1,9.45E1,7.061982E0,9E1,2.3300916E-2,6.179361E-2,1.7220545E-1,8.25E1,1.4898989E-1,1.0394684E-1,2.231153E-2],"split_indices":[1,0,3,5,12,0,0,0,0,16,0,0,2,0,0,0,0,0,0,0,0],"split_type":[0,0,0,0,0,0,0,0,0,0,0,0,0,0,0,0,0,0,0,0,0],"sum_hessian":[9E1,2E0,8.8E1,4E0,8.4E1,2E0,2E0,5.7E1,2.7E1,2.5E1,3.2E1,1.4E1,1.1E1,9E0,5E0,2E0,9E0,6E0,3E0,2E0,4E0],"tree_param":{"num_deleted":"0","num_feature":"53","num_nodes":"21","size_leaf_vector":"0"}},{"base_weights":[3.364702E1,4.3705015E0,3.4239082E1,1.4885252E1,3.4919792E1,4.9811234E0,1.8925493E1,3.139874E1,4.0569313E1,2.4438728E1,3.566991E1,1.6266994E1,3.2020615E1,2.1324501E1,4.6416907E0,1.2321272E1,3.429062E1,1.2596986E1,2.9694036E1,2.072637E1,4.4454675E0],"categories":[],"categories_nodes":[],"categories_segments":[],"categories_sizes":[],"default_left":[1,0,1,1,1,0,0,1,0,1,0,1,1,1,0,1,1,1,0,0,0],"id":29,"left_children":[1,-1,3,5,7,-1,-1,9,-1,11,-1,13,-1,17,-1,-1,-1,19,-1,-1,-1],"loss_changes":[1.3880234E3,0E0,5.0075E2,8.9528564E1,4.084375E1,0E0,0E0,5.9985547E2,0E0,9.523301E2,0E0,7.708882E2,7.705078E-1,2.6609375E2,0E0,0E0,0E0,3.6396765E2,0E0,0E0,0E0],"parents":[2147483647,0,0,2,2,3,3,4,4,7,7,9,9,11,11,12,12,13,13,17,17],"right_children":[2,-1,4,6,8,-1,-1,10,-1,12,-1,14,-1,18,-1,-1,-1,20,-1,-1,-1],"split_conditions":[4.955E2,2.1852506E-2,5E-1,1.5E0,5E-1,2.4905616E-2,9.462746E-2,1.08E2,2.0284656E-1,5E-1,1.7834955E-1,9.45E1,1.6010307E-1,9E1,2.3208452E-2,6.160636E-2,1.7145309E-1,8.25E1,1.4847018E-1,1.0363185E-1,2.2227338E-2],"split_indices":[1,0,3,5,12,0,0,0,0,16,0,0,2,0,0,2147483647,2147483647,0,0,0,0],"split_type":[0,0,0,0,0,0,0,0,0,0,0,0,0,0,0,0,0,0,0,0,0],"sum_hessian":[9E1,2E0,8.8E1,4E0,8.4E1,2E0,2E0,5.7E1,2.7E1,2.5E1,3.2E1,1.4E1,1.1E1,9E0,5E0,2E0,9E0,6E0,3E0,2E0,4E0],"tree_param":{"num_deleted":"2","num_feature":"53","num_nodes":"21","size_leaf_vector":"0"}},{"base_weights":[3.349274E1,4.3572574E0,3.4081837E1,1.4840146E1,3.4757977E1,4.9660296E0,1.8868145E1,3.125593E1,4.0375786E1,2.4339157E1,3.5498524E1,1.621094E1,3.1877434E1,2.12525E1,4.6232715E0,1.222424E1,3.4150723E1,1.2556415E1,2.959045E1,2.0663563E1,4.428692E0],"categories":[],"categories_nodes":[],"categories_segments":[],"categories_sizes":[],"default_left":[1,0,1,1,1,0,0,1,0,1,0,1,1,1,0,0,0,1,0,0,0],"id":30,"left_children":[1,-1,3,5,7,-1,-1,9,-1,11,-1,13,15,17,-1,-1,-1,19,-1,-1,-1],"loss_changes":[1.3739922E3,0E0,4.9122656E2,8.898682E1,3.7617188E1,0E0,0E0,5.876133E2,0E0,9.3968066E2,0E0,7.660918E2,6.8242188E0,2.638125E2,0E0,0E0,0E0,3.6205005E2,0E0,0E0,0E0],"parents":[2147483647,0,0,2,2,3,3,4,4,7,7,9,9,11,11,12,12,13,13,17,17],"right_children":[2,-1,4,6,8,-1,-1,10,-1,12,-1,14,16,18,-1,-1,-1,20,-1,-1,-1],"split_conditions":[4.955E2,2.1786286E-2,5E-1,1.5E0,5E-1,2.4830148E-2,9.434072E-2,1.08E2,2.0187892E-1,5E-1,1.7749262E-1,9.45E1,7.061982E0,9E1,2.3116358E-2,6.11212E-2,1.7075361E-1,8.25E1,1.4795224E-1,1.0331781E-1,2.2143459E-2],"split_indices":[1,0,3,5,12,0,0,0,0,16,0,0,2,0,0,0,0,0,0,0,0],"split_type":[0,0,0,0,0,0,0,0,0,0,0,0,0,0,0,0,0,0,0,0,0],"sum_hessian":[9E1,2E0,8.8E1,4E0,8.4E1,2E0,2E0,5.7E1,2.7E1,2.5E1,3.2E1,1.4E1,1.1E1,9E0,5E0,2E0,9E0,6E0,3E0,2E0,4E0],"tree_param":{"num_deleted":"0","num_feature":"53","num_nodes":"21","size_leaf_vector":"0"}},{"base_weights":[3.334021E1,4.3440537E0,3.392638E1,1.4795176E1,3.4598022E1,4.950981E0,1.8810968E1,3.1115389E1,4.018318E1,2.424358E1,3.532796E1,1.615508E1,3.1742554E1,2.1180748E1,4.604925E0,1.2187197E1,3.4001522E1,1.2515975E1,2.9487228E1,2.0600946E1,4.41198E0],"categories":[],"categories_nodes":[],"categories_segments":[],"categories_sizes":[],"default_left":[1,0,1,1,1,0,0,1,0,1,0,1,1,1,0,0,0,1,0,0,0],"id":31,"left_children":[1,-1,3,5,7,-1,-1,9,-1,11,-1,13,15,17,-1,-1,-1,19,-1,-1,-1],"loss_changes":[1.3602188E3,0E0,4.8197656E2,8.8448364E1,3.3789062E1,0E0,0E0,5.742383E2,0E0,9.2859375E2,0E0,7.613264E2,4.654297E0,2.6154883E2,0E0,0E0,0E0,3.601422E2,0E0,0E0,0E0],"parents":[2147483647,0,0,2,2,3,3,4,4,7,7,9,9,11,11,12,12,13,13,17,17],"right_children":[2,-1,4,6,8,-1,-1,10,-1,12,-1,14,16,18,-1,-1,-1,20,-1,-1,-1],"split_conditions":[4.955E2,2.1720268E-2,5E-1,1.5E0,5E-1,2.4754906E-2,9.405484E-2,1.08E2,2.009159E-1,5E-1,1.766398E-1,9.45E1,7.061982E0,9E1,2.3024626E-2,6.093598E-2,1.700076E-1,8.25E1,1.4743614E-1,1.0300473E-1,2.20599E-2],"split_indices":[1,0,3,5,12,0,0,0,0,16,0,0,2,0,0,0,0,0,0,0,0],"split_type":[0,0,0,0,0,0,0,0,0,0,0,0,0,0,0,0,0,0,0,0,0],"sum_hessian":[9E1,2E0,8.8E1,4E0,8.4E1,2E0,2E0,5.7E1,2.7E1,2.5E1,3.2E1,1.4E1,1.1E1,9E0,5E0,2E0,9E0,6E0,3E0,2E0,4E0],"tree_param":{"num_deleted":"0","num_feature":"53","num_nodes":"21","size_leaf_vector":"0"}},{"base_weights":[3.318838E1,4.3308897E0,3.3771637E1,1.4750341E1,3.443881E1,4.935978E0,1.8753965E1,3.097549E1,3.9991493E1,2.4148384E1,3.5158215E1,1.6099415E1,3.160825E1,2.1109238E1,4.5866513E0,1.2150266E1,3.385297E1,1.2475667E1,2.9384367E1,2.053852E1,4.395331E0],"categories":[],"categories_nodes":[],"categories_segments":[],"categories_sizes":[],"default_left":[1,0,1,1,1,0,0,1,0,1,0,1,1,1,0,0,0,1,0,0,0],"id":32,"left_children":[1,-1,3,5,7,-1,-1,9,-1,11,-1,13,15,17,-1,-1,-1,19,-1,-1,-1],"loss_changes":[1.3465469E3,0E0,4.7289062E2,8.7913086E1,2.9992188E1,0E0,0E0,5.6109375E2,0E0,9.17624E2,0E0,7.565901E2,2.5166016E0,2.5930566E2,0E0,0E0,0E0,3.582433E2,0E0,0E0,0E0],"parents":[2147483647,0,0,2,2,3,3,4,4,7,7,9,9,11,11,12,12,13,13,17,17],"right_children":[2,-1,4,6,8,-1,-1,10,-1,12,-1,14,16,18,-1,-1,-1,20,-1,-1,-1],"split_conditions":[4.955E2,2.1654448E-2,5E-1,1.5E0,5E-1,2.467989E-2,9.3769826E-2,1.08E2,1.9995746E-1,5E-1,1.7579107E-1,9.45E1,7.061982E0,9E1,2.2933256E-2,6.0751326E-2,1.6926485E-1,8.25E1,1.4692183E-1,1.02692604E-1,2.1976653E-2],"split_indices":[1,0,3,5,12,0,0,0,0,16,0,0,2,0,0,0,0,0,0,0,0],"split_type":[0,0,0,0,0,0,0,0,0,0,0,0,0,0,0,0,0,0,0,0,0],"sum_hessian":[9E1,2E0,8.8E1,4E0,8.4E1,2E0,2E0,5.7E1,2.7E1,2.5E1,3.2E1,1.4E1,1.1E1,9E0,5E0,2E0,9E0,6E0,3E0,2E0,4E0],"tree_param":{"num_deleted":"0","num_feature":"53","num_nodes":"21","size_leaf_vector":"0"}},{"base_weights":[3.303725E1,4.317766E0,3.3617607E1,1.4705644E1,3.4280334E1,4.904532E0,1.8713623E1,3.083623E1,3.980072E1,2.405357E1,3.4989285E1,1.6043943E1,3.1474518E1,2.103797E1,4.5684505E0,1.2113447E1,3.3705067E1,1.2435491E1,2.9281862E1,2.0476282E1,4.378745E0],"categories":[],"categories_nodes":[],"categories_segments":[],"categories_sizes":[],"default_left":[1,0,1,1,1,0,0,1,0,1,0,1,1,1,0,1,1,1,0,0,0],"id":33,"left_children":[1,-1,3,5,7,-1,-1,9,-1,11,-1,13,-1,17,-1,-1,-1,19,-1,-1,-1],"loss_changes":[1.3330625E3,0E0,4.638828E2,8.888196E1,2.6296875E1,0E0,0E0,5.481406E2,0E0,9.067783E2,0E0,7.5188184E2,4.1601562E-1,2.5708057E2,0E0,0E0,0E0,3.563546E2,0E0,0E0,0E0],"parents":[2147483647,0,0,2,2,3,3,4,4,7,7,9,9,11,11,12,12,13,13,17,17],"right_children":[2,-1,4,6,8,-1,-1,10,-1,12,-1,14,-1,18,-1,-1,-1,20,-1,-1,-1],"split_conditions":[4.955E2,2.158883E-2,5E-1,1.22E2,5E-1,2.4522658E-2,9.356812E-2,1.08E2,1.9900359E-1,5E-1,1.7494641E-1,9.45E1,1.5737258E-1,9E1,2.2842253E-2,6.0567234E-2,1.6852532E-1,8.25E1,1.464093E-1,1.0238141E-1,2.1893725E-2],"split_indices":[1,0,3,0,12,0,0,0,0,16,0,0,2,0,0,2147483647,2147483647,0,0,0,0],"split_type":[0,0,0,0,0,0,0,0,0,0,0,0,0,0,0,0,0,0,0,0,0],"sum_hessian":[9E1,2E0,8.8E1,4E0,8.4E1,2E0,2E0,5.7E1,2.7E1,2.5E1,3.2E1,1.4E1,1.1E1,9E0,5E0,2E0,9E0,6E0,3E0,2E0,4E0],"tree_param":{"num_deleted":"2","num_feature":"53","num_nodes":"21","size_leaf_vector":"0"}},{"base_weights":[3.28858E1,4.3046823E0,3.346325E1,1.4661081E1,3.4121506E1,4.8852353E0,1.866135E1,1.256604E1,3.4442936E1,3.477931E1,1.2587437E1],"categories":[],"categories_nodes":[],"categories_segments":[],"categories_sizes":[],"default_left":[1,0,1,1,1,0,0,0,1,0,0],"id":34,"left_children":[1,-1,3,5,7,-1,-1,-1,9,-1,-1],"loss_changes":[1.3195625E3,0E0,4.5491406E2,8.874744E1,2.8335938E1,0E0,0E0,0E0,4.328125E1,0E0,0E0],"parents":[2147483647,0,0,2,2,3,3,4,4,8,8],"right_children":[2,-1,4,6,8,-1,-1,-1,10,-1,-1],"split_conditions":[4.955E2,2.152341E-2,5E-1,1.5E0,5.185E2,2.4426175E-2,9.330675E-2,6.28302E-2,5E-1,1.7389654E-1,6.2937185E-2],"split_indices":[1,0,3,5,1,0,0,0,38,0,0],"split_type":[0,0,0,0,0,0,0,0,0,0,0],"sum_hessian":[9E1,2E0,8.8E1,4E0,8.4E1,2E0,2E0,2E0,8.2E1,8E1,2E0],"tree_param":{"num_deleted":"0","num_feature":"53","num_nodes":"11","size_leaf_vector":"0"}},{"base_weights":[3.272762E1,4.2916374E0,3.330201E1,1.4616653E1,3.3955463E1,4.853993E0,1.8621239E1,3.0531698E1,3.9448875E1,2.3798737E1,3.4657394E1,1.5836802E1,3.1187292E1,2.0825779E1,4.4123087E0,1.1946335E1,3.341561E1,1.226773E1,2.9058393E1,2.0342497E1,4.230979E0],"categories":[],"categories_nodes":[],"categories_segments":[],"categories_sizes":[],"default_left":[1,0,1,1,1,0,0,1,0,1,0,1,1,1,0,0,0,1,0,0,0],"id":35,"left_children":[1,-1,3,5,7,-1,-1,9,-1,11,-1,13,15,17,-1,-1,-1,19,-1,-1,-1],"loss_changes":[1.3054453E3,0E0,4.4514062E2,8.970203E1,3.85625E1,0E0,0E0,5.4722266E2,0E0,9.050762E2,0E0,7.525901E2,8.410156E0,2.6226318E2,0E0,0E0,0E0,3.6184338E2,0E0,0E0,0E0],"parents":[2147483647,0,0,2,2,3,3,4,4,7,7,9,9,11,11,12,12,13,13,17,17],"right_children":[2,-1,4,6,8,-1,-1,10,-1,12,-1,14,16,18,-1,-1,-1,20,-1,-1,-1],"split_conditions":[4.955E2,2.1458186E-2,5E-1,1.22E2,5E-1,2.4269965E-2,9.310619E-2,1.08E2,1.9724438E-1,5E-1,1.7328697E-1,9.45E1,7.061982E0,9E1,2.2061544E-2,5.9731673E-2,1.6707805E-1,8.25E1,1.4529197E-1,1.0171248E-1,2.1154894E-2],"split_indices":[1,0,3,0,12,0,0,0,0,16,0,0,2,0,0,0,0,0,0,0,0],"split_type":[0,0,0,0,0,0,0,0,0,0,0,0,0,0,0,0,0,0,0,0,0],"sum_hessian":[9E1,2E0,8.8E1,4E0,8.4E1,2E0,2E0,5.7E1,2.7E1,2.5E1,3.2E1,1.4E1,1.1E1,9E0,5E0,2E0,9E0,6E0,3E0,2E0,4E0],"tree_param":{"num_deleted":"0","num_feature":"53","num_nodes":"21","size_leaf_vector":"0"}},{"base_weights":[3.2578598E1,4.2786326E0,3.3150127E1,1.4572361E1,3.3799213E1,4.834863E0,1.8569231E1,3.0394432E1,3.926069E1,2.37053E1,3.449087E1,1.5782277E1,3.1055328E1,2.0755495E1,4.3947997E0,1.1910133E1,3.326962E1,1.22282715E1,2.8957027E1,2.0280853E1,4.215013E0],"categories":[],"categories_nodes":[],"categories_segments":[],"categories_sizes":[],"default_left":[1,0,1,1,1,0,0,1,0,1,0,1,1,1,0,0,0,1,0,0,0],"id":36,"left_children":[1,-1,3,5,7,-1,-1,9,-1,11,-1,13,15,17,-1,-1,-1,19,-1,-1,-1],"loss_changes":[1.2923203E3,0E0,4.3654688E2,8.9559814E1,3.4859375E1,0E0,0E0,5.346133E2,0E0,8.944053E2,0E0,7.4789453E2,6.314453E0,2.6002002E2,0E0,0E0,0E0,3.5992126E2,0E0,0E0,0E0],"parents":[2147483647,0,0,2,2,3,3,4,4,7,7,9,9,11,11,12,12,13,13,17,17],"right_children":[2,-1,4,6,8,-1,-1,10,-1,12,-1,14,16,18,-1,-1,-1,20,-1,-1,-1],"split_conditions":[4.955E2,2.1393163E-2,5E-1,1.5E0,5E-1,2.4174316E-2,9.2846155E-2,1.08E2,1.9630344E-1,5E-1,1.7245436E-1,9.45E1,7.061982E0,9E1,2.1973997E-2,5.9550665E-2,1.6634808E-1,8.25E1,1.4478514E-1,1.01404265E-1,2.1075064E-2],"split_indices":[1,0,3,5,12,0,0,0,0,16,0,0,2,0,0,0,0,0,0,0,0],"split_type":[0,0,0,0,0,0,0,0,0,0,0,0,0,0,0,0,0,0,0,0,0],"sum_hessian":[9E1,2E0,8.8E1,4E0,8.4E1,2E0,2E0,5.7E1,2.7E1,2.5E1,3.2E1,1.4E1,1.1E1,9E0,5E0,2E0,9E0,6E0,3E0,2E0,4E0],"tree_param":{"num_deleted":"0","num_feature":"53","num_nodes":"21","size_leaf_vector":"0"}},{"base_weights":[3.243026E1,4.265667E0,3.2998947E1,1.4528202E1,3.364369E1,4.803823E0,1.852935E1,3.3963184E1,1.2325266E1,2.826829E1,3.7145287E1,1.8516008E1,3.1692333E1,2.1181177E1,2.90327E0,3.3661674E1,1.2355827E1,2.5024961E1,3.169378E0,2.9903706E1,5.852678E0],"categories":[],"categories_nodes":[],"categories_segments":[],"categories_sizes":[],"default_left":[1,0,1,1,1,0,0,1,0,1,0,1,1,1,0,0,0,1,0,0,0],"id":37,"left_children":[1,-1,3,5,7,-1,-1,9,-1,11,-1,13,15,17,-1,-1,-1,19,-1,-1,-1],"loss_changes":[1.2793594E3,0E0,4.280547E2,9.050073E1,3.6789062E1,0E0,0E0,1.4451562E2,0E0,4.1588477E2,0E0,4.3186572E2,3.846582E2,6.099971E2,0E0,0E0,0E0,5.48833E2,0E0,0E0,0E0],"parents":[2147483647,0,0,2,2,3,3,4,4,7,7,9,9,11,11,12,12,13,13,17,17],"right_children":[2,-1,4,6,8,-1,-1,10,-1,12,-1,14,16,18,-1,-1,-1,20,-1,-1,-1],"split_conditions":[4.955E2,2.1328334E-2,5E-1,1.22E2,5E-1,2.4019115E-2,9.264675E-2,1.07E2,6.1626326E-2,7.2807245E0,1.8572643E-1,5E-1,1.015E2,5E-1,1.451635E-2,1.6830836E-1,6.1779134E-2,5E-1,1.584689E-2,1.4951852E-1,2.9263388E-2],"split_indices":[1,0,3,0,38,0,0,0,0,2,0,31,0,5,0,0,0,50,0,0,0],"split_type":[0,0,0,0,0,0,0,0,0,0,0,0,0,0,0,0,0,0,0,0,0],"sum_hessian":[9E1,2E0,8.8E1,4E0,8.4E1,2E0,2E0,8.2E1,2E0,3.4E1,4.8E1,1.1E1,2.3E1,9E0,2E0,2E1,3E0,7E0,2E0,5E0,2E0],"tree_param":{"num_deleted":"0","num_feature":"53","num_nodes":"21","size_leaf_vector":"0"}},{"base_weights":[3.227985E1,4.2527404E0,3.2845646E1,1.4484178E1,3.3485935E1,4.7848587E0,1.8477608E1,3.010753E1,3.890746E1,2.3500404E1,3.4150402E1,1.5639437E1,3.07949E1,2.0570463E1,4.350413E0,1.1819866E1,3.2987545E1,1.2095868E1,2.873859E1,2.0128778E1,4.1273336E0],"categories":[],"categories_nodes":[],"categories_segments":[],"categories_sizes":[],"default_left":[1,0,1,1,1,0,0,1,0,1,0,1,1,1,0,0,0,1,0,0,0],"id":38,"left_children":[1,-1,3,5,7,-1,-1,9,-1,11,-1,13,15,17,-1,-1,-1,19,-1,-1,-1],"loss_changes":[1.2662109E3,0E0,4.1934375E2,9.0351074E1,3.9546875E1,0E0,0E0,5.139844E2,0E0,8.819883E2,0E0,7.3536035E2,4.8671875E0,2.6107812E2,0E0,0E0,0E0,3.5927563E2,0E0,0E0,0E0],"parents":[2147483647,0,0,2,2,3,3,4,4,7,7,9,9,11,11,12,12,13,13,17,17],"right_children":[2,-1,4,6,8,-1,-1,10,-1,12,-1,14,16,18,-1,-1,-1,20,-1,-1,-1],"split_conditions":[4.955E2,2.1263702E-2,5E-1,1.5E0,5E-1,2.3924293E-2,9.2388034E-2,1.08E2,1.945373E-1,5E-1,1.70752E-1,9.45E1,7.061982E0,9E1,2.1752063E-2,5.9099328E-2,1.6493772E-1,8.25E1,1.4369296E-1,1.0064389E-1,2.0636668E-2],"split_indices":[1,0,3,5,12,0,0,0,0,16,0,0,2,0,0,0,0,0,0,0,0],"split_type":[0,0,0,0,0,0,0,0,0,0,0,0,0,0,0,0,0,0,0,0,0],"sum_hessian":[9E1,2E0,8.8E1,4E0,8.4E1,2E0,2E0,5.7E1,2.7E1,2.5E1,3.2E1,1.4E1,1.1E1,9E0,5E0,2E0,9E0,6E0,3E0,2E0,4E0],"tree_param":{"num_deleted":"0","num_feature":"53","num_nodes":"21","size_leaf_vector":"0"}},{"base_weights":[3.2132885E1,4.239854E0,3.2695866E1,1.4440286E1,3.3331856E1,4.7540197E0,1.8437954E1,3.364973E1,1.2177222E1,2.802479E1,3.679001E1,1.8379267E1,3.1407824E1,2.1024817E1,2.881627E0,3.335558E1,1.2264251E1,2.4839983E1,3.146591E0,2.968195E1,5.81078E0],"categories":[],"categories_nodes":[],"categories_segments":[],"categories_sizes":[],"default_left":[1,0,1,1,1,0,0,1,0,1,0,1,1,1,0,0,0,1,0,0,0],"id":39,"left_children":[1,-1,3,5,7,-1,-1,9,-1,11,-1,13,15,17,-1,-1,-1,19,-1,-1,-1],"loss_changes":[1.2534922E3,0E0,4.1107812E2,9.127832E1,4.0914062E1,0E0,0E0,1.3105469E2,0E0,4.0145312E2,0E0,4.2553662E2,3.7426367E2,6.00937E2,0E0,0E0,0E0,5.405327E2,0E0,0E0,0E0],"parents":[2147483647,0,0,2,2,3,3,4,4,7,7,9,9,11,11,12,12,13,13,17,17],"right_children":[2,-1,4,6,8,-1,-1,10,-1,12,-1,14,16,18,-1,-1,-1,20,-1,-1,-1],"split_conditions":[4.955E2,2.119927E-2,5E-1,1.22E2,5E-1,2.3770098E-2,9.218977E-2,1.07E2,6.088611E-2,7.2807245E0,1.8395004E-1,5E-1,1.015E2,5E-1,1.4408135E-2,1.667779E-1,6.132125E-2,5E-1,1.5732955E-2,1.4840974E-1,2.90539E-2],"split_indices":[1,0,3,0,38,0,0,0,0,2,0,31,0,5,0,0,0,50,0,0,0],"split_type":[0,0,0,0,0,0,0,0,0,0,0,0,0,0,0,0,0,0,0,0,0],"sum_hessian":[9E1,2E0,8.8E1,4E0,8.4E1,2E0,2E0,8.2E1,2E0,3.4E1,4.8E1,1.1E1,2.3E1,9E0,2E0,2E1,3E0,7E0,2E0,5E0,2E0],"tree_param":{"num_deleted":"0","num_feature":"53","num_nodes":"21","size_leaf_vector":"0"}},{"base_weights":[3.1983862E1,4.2270055E0,3.254398E1,1.4396527E1,3.3175568E1,4.7352195E0,1.8386477E1,2.982332E1,3.855747E1,2.3297287E1,3.3813244E1,1.5497844E1,3.0536716E1,2.0387058E1,4.306401E0,1.1730271E1,3.2707935E1,1.1964681E1,2.8521982E1,1.9977837E1,4.0406237E0],"categories":[],"categories_nodes":[],"categories_segments":[],"categories_sizes":[],"default_left":[1,0,1,1,1,0,0,1,0,1,0,1,1,1,0,0,0,1,0,0,0],"id":40,"left_children":[1,-1,3,5,7,-1,-1,9,-1,11,-1,13,15,17,-1,-1,-1,19,-1,-1,-1],"loss_changes":[1.2406094E3,0E0,4.0264062E2,9.112195E1,4.4046875E1,0E0,0E0,4.9395703E2,0E0,8.697637E2,0E0,7.2304175E2,3.4658203E0,2.6207568E2,0E0,0E0,0E0,3.585863E2,0E0,0E0,0E0],"parents":[2147483647,0,0,2,2,3,3,4,4,7,7,9,9,11,11,12,12,13,13,17,17],"right_children":[2,-1,4,6,8,-1,-1,10,-1,12,-1,14,16,18,-1,-1,-1,20,-1,-1,-1],"split_conditions":[4.955E2,2.1135027E-2,5E-1,1.5E0,5E-1,2.3676097E-2,9.193238E-2,1.08E2,1.9278733E-1,5E-1,1.6906622E-1,9.45E1,7.061982E0,9E1,2.1532003E-2,5.8651354E-2,1.6353968E-1,8.25E1,1.4260991E-1,9.988918E-2,2.0203117E-2],"split_indices":[1,0,3,5,12,0,0,0,0,16,0,0,2,0,0,0,0,0,0,0,0],"split_type":[0,0,0,0,0,0,0,0,0,0,0,0,0,0,0,0,0,0,0,0,0],"sum_hessian":[9E1,2E0,8.8E1,4E0,8.4E1,2E0,2E0,5.7E1,2.7E1,2.5E1,3.2E1,1.4E1,1.1E1,9E0,5E0,2E0,9E0,6E0,3E0,2E0,4E0],"tree_param":{"num_deleted":"0","num_feature":"53","num_nodes":"21","size_leaf_vector":"0"}},{"base_weights":[3.1838253E1,4.214196E0,3.2395584E1,1.4352901E1,3.3022923E1,4.704581E0,1.8347048E1,3.3339184E1,1.2030669E1,2.7783422E1,3.6438118E1,1.8243649E1,3.112584E1,2.0869715E1,2.8602479E0,3.3052216E1,1.2173421E1,2.4656487E1,3.1240063E0,2.9461943E1,5.769276E0],"categories":[],"categories_nodes":[],"categories_segments":[],"categories_sizes":[],"default_left":[1,0,1,1,1,0,0,1,0,1,0,1,1,1,0,0,0,1,0,0,0],"id":41,"left_children":[1,-1,3,5,7,-1,-1,9,-1,11,-1,13,15,17,-1,-1,-1,19,-1,-1,-1],"loss_changes":[1.2281719E3,0E0,3.9458594E2,9.203552E1,4.4890625E1,0E0,0E0,1.1810156E2,0E0,3.873711E2,0E0,4.1929395E2,3.6411523E2,5.920132E2,0E0,0E0,0E0,5.32355E2,0E0,0E0,0E0],"parents":[2147483647,0,0,2,2,3,3,4,4,7,7,9,9,11,11,12,12,13,13,17,17],"right_children":[2,-1,4,6,8,-1,-1,10,-1,12,-1,14,16,18,-1,-1,-1,20,-1,-1,-1],"split_conditions":[4.955E2,2.1070981E-2,5E-1,1.22E2,5E-1,2.3522904E-2,9.173524E-2,1.07E2,6.0153347E-2,7.2807245E0,1.8219058E-1,5E-1,1.015E2,5E-1,1.4301239E-2,1.6526107E-1,6.0867105E-2,5E-1,1.5620031E-2,1.473097E-1,2.884638E-2],"split_indices":[1,0,3,0,38,0,0,0,0,2,0,31,0,5,0,0,0,50,0,0,0],"split_type":[0,0,0,0,0,0,0,0,0,0,0,0,0,0,0,0,0,0,0,0,0],"sum_hessian":[9E1,2E0,8.8E1,4E0,8.4E1,2E0,2E0,8.2E1,2E0,3.4E1,4.8E1,1.1E1,2.3E1,9E0,2E0,2E1,3E0,7E0,2E0,5E0,2E0],"tree_param":{"num_deleted":"0","num_feature":"53","num_nodes":"21","size_leaf_vector":"0"}},{"base_weights":[3.1690607E1,4.2014265E0,3.2245106E1,1.4309408E1,3.2868088E1,4.685944E0,1.8295834E1,2.9541779E1,3.821068E1,2.3095928E1,3.3479362E1,1.5357489E1,3.028076E1,3.4290115E1,1.2600666E1,2.0205261E1,4.26276E0,1.1641344E1,3.2430767E1,1.1834697E1,2.8307188E1,1.982802E1,3.9548721E0],"categories":[],"categories_nodes":[],"categories_segments":[],"categories_sizes":[],"default_left":[1,0,1,1,1,0,0,1,0,1,1,1,1,0,0,1,0,0,0,1,0,0,0],"id":42,"left_children":[1,-1,3,5,7,-1,-1,9,-1,11,13,15,17,-1,-1,19,-1,-1,-1,21,-1,-1,-1],"loss_changes":[1.2155234E3,0E0,3.8639062E2,9.187195E1,4.8421875E1,0E0,0E0,4.745078E2,0E0,8.5771387E2,1.984375E0,7.1093774E2,2.1230469E0,0E0,0E0,2.630127E2,0E0,0E0,0E0,3.5785522E2,0E0,0E0,0E0],"parents":[2147483647,0,0,2,2,3,3,4,4,7,7,9,9,10,10,11,11,12,12,15,15,19,19],"right_children":[2,-1,4,6,8,-1,-1,10,-1,12,14,16,18,-1,-1,20,-1,-1,-1,22,-1,-1,-1],"split_conditions":[4.955E2,2.1007132E-2,5E-1,1.5E0,5E-1,2.342972E-2,9.147917E-2,1.08E2,1.9105339E-1,5E-1,1.5E0,9.45E1,7.061982E0,1.7145057E-1,6.300333E-2,9E1,2.13138E-2,5.820672E-2,1.6215383E-1,8.25E1,1.4153594E-1,9.91401E-2,1.977436E-2],"split_indices":[1,0,3,5,12,0,0,0,0,16,21,0,2,0,0,0,0,0,0,0,0,0,0],"split_type":[0,0,0,0,0,0,0,0,0,0,0,0,0,0,0,0,0,0,0,0,0,0,0],"sum_hessian":[9E1,2E0,8.8E1,4E0,8.4E1,2E0,2E0,5.7E1,2.7E1,2.5E1,3.2E1,1.4E1,1.1E1,3E1,2E0,9E0,5E0,2E0,9E0,6E0,3E0,2E0,4E0],"tree_param":{"num_deleted":"0","num_feature":"53","num_nodes":"23","size_leaf_vector":"0"}},{"base_weights":[3.1547298E1,4.1886945E0,3.2099056E1,1.4266047E1,3.2717884E1,4.6555037E0,1.8256632E1,3.303132E1,1.1917226E1,2.7544167E1,3.6089245E1,1.8109146E1,3.084636E1,2.0715862E1,2.8391294E0,3.275156E1,1.2083332E1,2.447446E1,3.101622E0,2.9243664E1,5.728163E0],"categories":[],"categories_nodes":[],"categories_segments":[],"categories_sizes":[],"default_left":[1,0,1,1,1,0,0,1,0,1,0,1,1,1,0,0,0,1,0,0,0],"id":43,"left_children":[1,-1,3,5,7,-1,-1,9,-1,11,-1,13,15,17,-1,-1,-1,19,-1,-1,-1],"loss_changes":[1.2033984E3,0E0,3.7871875E2,9.277197E1,4.4367188E1,0E0,0E0,1.05453125E2,0E0,3.7363672E2,0E0,4.1313672E2,3.5418945E2,5.8322705E2,0E0,0E0,0E0,5.2429395E2,0E0,0E0,0E0],"parents":[2147483647,0,0,2,2,3,3,4,4,7,7,9,9,11,11,12,12,13,13,17,17],"right_children":[2,-1,4,6,8,-1,-1,10,-1,12,-1,14,16,18,-1,-1,-1,20,-1,-1,-1],"split_conditions":[4.955E2,2.0943472E-2,5E-1,1.22E2,5E-1,2.3277517E-2,9.128316E-2,1.07E2,5.9586126E-2,7.2807245E0,1.8044622E-1,5E-1,1.015E2,5E-1,1.4195647E-2,1.637578E-1,6.0416657E-2,5E-1,1.5508111E-2,1.4621831E-1,2.8640812E-2],"split_indices":[1,0,3,0,38,0,0,0,0,2,0,31,0,5,0,0,0,50,0,0,0],"split_type":[0,0,0,0,0,0,0,0,0,0,0,0,0,0,0,0,0,0,0,0,0],"sum_hessian":[9E1,2E0,8.8E1,4E0,8.4E1,2E0,2E0,8.2E1,2E0,3.4E1,4.8E1,1.1E1,2.3E1,9E0,2E0,2E1,3E0,7E0,2E0,5E0,2E0],"tree_param":{"num_deleted":"0","num_feature":"53","num_nodes":"21","size_leaf_vector":"0"}},{"base_weights":[3.1401014E1,4.1760015E0,3.1949963E1,1.42228155E1,3.2564487E1,4.6370287E0,1.8205675E1,2.9264374E1,3.786706E1,2.2896317E1,3.315135E1,1.5218361E1,3.002701E1,3.395283E1,1.2489745E1,2.0025063E1,4.219488E0,1.1553081E1,3.2156025E1,3.4837727E1,1.2720681E1,1.1705907E1,2.8094193E1,1.9679317E1,3.8700707E0],"categories":[],"categories_nodes":[],"categories_segments":[],"categories_sizes":[],"default_left":[1,0,1,1,1,0,0,1,0,1,1,1,1,1,0,1,0,1,1,0,0,1,0,0,0],"id":44,"left_children":[1,-1,3,5,7,-1,-1,9,-1,11,13,15,-1,19,-1,21,-1,-1,-1,-1,-1,23,-1,-1,-1],"loss_changes":[1.1910469E3,0E0,3.7070312E2,9.2601685E1,5.20625E1,0E0,0E0,4.563203E2,0E0,8.4585254E2,1.640625E-1,6.9904126E2,8.222656E-1,1.1964844E1,0E0,2.6389307E2,0E0,0E0,0E0,0E0,0E0,3.5708344E2,0E0,0E0,0E0],"parents":[2147483647,0,0,2,2,3,3,4,4,7,7,9,9,10,10,11,11,12,12,13,13,15,15,21,21],"right_children":[2,-1,4,6,8,-1,-1,10,-1,12,14,16,-1,20,-1,22,-1,-1,-1,-1,-1,24,-1,-1,-1],"split_conditions":[4.955E2,2.0880008E-2,5E-1,1.5E0,5E-1,2.3185143E-2,9.102837E-2,1.08E2,1.893353E-1,5E-1,1.5E0,9.45E1,1.5013504E-1,1.139E3,6.2448725E-2,9E1,2.109744E-2,5.7765402E-2,1.6078012E-1,1.7418863E-1,6.36034E-2,8.25E1,1.4047097E-1,9.8396584E-2,1.9350354E-2],"split_indices":[1,0,3,5,12,0,0,0,0,16,21,0,2,1,0,0,0,2147483647,2147483647,0,0,0,0,0,0],"split_type":[0,0,0,0,0,0,0,0,0,0,0,0,0,0,0,0,0,0,0,0,0,0,0,0,0],"sum_hessian":[9E1,2E0,8.8E1,4E0,8.4E1,2E0,2E0,5.7E1,2.7E1,2.5E1,3.2E1,1.4E1,1.1E1,3E1,2E0,9E0,5E0,2E0,9E0,2.8E1,2E0,6E0,3E0,2E0,4E0],"tree_param":{"num_deleted":"2","num_feature":"53","num_nodes":"25","size_leaf_vector":"0"}},{"base_weights":[3.1259018E1,4.1633472E0,3.1805256E1,1.4179716E1,3.2415672E1,4.6067863E0,1.8166698E1,2.9134323E1,3.7686424E1,2.2803062E1,3.299731E1,1.5166002E1,2.9892742E1,1.995753E1,4.202744E0,1.146209E1,3.2024837E1,1.1668345E1,2.7996191E1,1.9619682E1,3.8554664E0],"categories":[],"categories_nodes":[],"categories_segments":[],"categories_sizes":[],"default_left":[1,0,1,1,1,0,0,1,0,1,0,1,1,1,0,0,0,1,0,0,0],"id":45,"left_children":[1,-1,3,5,7,-1,-1,9,-1,11,-1,13,15,17,-1,-1,-1,19,-1,-1,-1],"loss_changes":[1.1791484E3,0E0,3.632578E2,9.348828E1,4.7914062E1,0E0,0E0,4.4770703E2,0E0,8.3463477E2,0E0,6.9468115E2,6.1464844E0,2.6166016E2,0E0,0E0,0E0,3.5516077E2,0E0,0E0,0E0],"parents":[2147483647,0,0,2,2,3,3,4,4,7,7,9,9,11,11,12,12,13,13,17,17],"right_children":[2,-1,4,6,8,-1,-1,10,-1,12,-1,14,16,18,-1,-1,-1,20,-1,-1,-1],"split_conditions":[4.955E2,2.0816736E-2,5E-1,1.22E2,5E-1,2.303393E-2,9.083349E-2,1.08E2,1.8843211E-1,5E-1,1.6498655E-1,9.45E1,7.061982E0,9E1,2.101372E-2,5.7310447E-2,1.6012418E-1,8.25E1,1.3998096E-1,9.809841E-2,1.927733E-2],"split_indices":[1,0,3,0,12,0,0,0,0,16,0,0,2,0,0,0,0,0,0,0,0],"split_type":[0,0,0,0,0,0,0,0,0,0,0,0,0,0,0,0,0,0,0,0,0],"sum_hessian":[9E1,2E0,8.8E1,4E0,8.4E1,2E0,2E0,5.7E1,2.7E1,2.5E1,3.2E1,1.4E1,1.1E1,9E0,5E0,2E0,9E0,6E0,3E0,2E0,4E0],"tree_param":{"num_deleted":"0","num_feature":"53","num_nodes":"21","size_leaf_vector":"0"}},{"base_weights":[3.1116734E1,4.1507306E0,3.166025E1,1.4136746E1,3.2266537E1,4.588472E0,1.8116001E1,3.2577827E1,1.1697718E1,2.7189754E1,3.557677E1,1.7896563E1,3.043912E1,2.0472593E1,2.8060598E0,3.231399E1,1.194944E1,2.4186459E1,3.0667012E0,2.8912384E1,5.636237E0],"categories":[],"categories_nodes":[],"categories_segments":[],"categories_sizes":[],"default_left":[1,0,1,1,1,0,0,1,0,1,0,1,1,1,0,0,0,1,0,0,0],"id":46,"left_children":[1,-1,3,5,7,-1,-1,9,-1,11,-1,13,15,17,-1,-1,-1,19,-1,-1,-1],"loss_changes":[1.1672891E3,0E0,3.557578E2,9.33114E1,5.0765625E1,0E0,0E0,8.847656E1,0E0,3.5777148E2,0E0,4.034641E2,3.4040234E2,5.6939844E2,0E0,0E0,0E0,5.15792E2,0E0,0E0,0E0],"parents":[2147483647,0,0,2,2,3,3,4,4,7,7,9,9,11,11,12,12,13,13,17,17],"right_children":[2,-1,4,6,8,-1,-1,10,-1,12,-1,14,16,18,-1,-1,-1,20,-1,-1,-1],"split_conditions":[4.955E2,2.0753652E-2,5E-1,1.5E0,5E-1,2.2942359E-2,9.058E-2,1.07E2,5.848859E-2,7.2807245E0,1.7788385E-1,5E-1,1.015E2,5E-1,1.4030299E-2,1.6156995E-1,5.97472E-2,5E-1,1.5333505E-2,1.4456192E-1,2.8181186E-2],"split_indices":[1,0,3,5,38,0,0,0,0,2,0,31,0,5,0,0,0,50,0,0,0],"split_type":[0,0,0,0,0,0,0,0,0,0,0,0,0,0,0,0,0,0,0,0,0],"sum_hessian":[9E1,2E0,8.8E1,4E0,8.4E1,2E0,2E0,8.2E1,2E0,3.4E1,4.8E1,1.1E1,2.3E1,9E0,2E0,2E1,3E0,7E0,2E0,5E0,2E0],"tree_param":{"num_deleted":"0","num_feature":"53","num_nodes":"21","size_leaf_vector":"0"}},{"base_weights":[3.0972456E1,4.1381526E0,3.1513206E1,1.4093909E1,3.2115257E1,4.558425E0,1.8077248E1,2.885928E1,3.7347546E1,2.363223E1,3.3669415E1,1.511057E1,3.0791914E1,3.470394E1,1.2474333E1,1.9779621E1,6.9497294E0,1.1375009E1,3.2473473E1,1.1541253E1,2.7785805E1,8.607692E0,2.8051138E0,1.9472616E1,3.7719834E0],"categories":[],"categories_nodes":[],"categories_segments":[],"categories_sizes":[],"default_left":[1,0,1,1,1,0,0,1,0,1,1,1,1,0,0,1,1,0,0,1,0,0,0,0,0],"id":47,"left_children":[1,-1,3,5,7,-1,-1,9,-1,11,13,15,17,-1,-1,19,21,-1,-1,23,-1,-1,-1,-1,-1],"loss_changes":[1.1552969E3,0E0,3.4810156E2,9.4185425E1,5.2015625E1,0E0,0E0,4.314336E2,0E0,1.3658359E3,3.5822266E1,4.8048633E2,5.2003906E1,0E0,0E0,2.6247803E2,2.5645172E1,0E0,0E0,3.5434692E2,0E0,0E0,0E0,0E0,0E0],"parents":[2147483647,0,0,2,2,3,3,4,4,7,7,9,9,10,10,11,11,12,12,15,15,16,16,19,19],"right_children":[2,-1,4,6,8,-1,-1,10,-1,12,14,16,18,-1,-1,20,22,-1,-1,24,-1,-1,-1,-1,-1],"split_conditions":[4.955E2,2.0690763E-2,5E-1,1.22E2,5E-1,2.2792125E-2,9.0386234E-2,1.18E2,1.8673773E-1,5E-1,1.139E3,9.45E1,7.037227E0,1.735197E-1,6.2371664E-2,9E1,7.2625103E0,5.6875043E-2,1.6236736E-1,8.25E1,1.3892902E-1,4.3038458E-2,1.4025569E-2,9.736308E-2,1.8859917E-2],"split_indices":[1,0,3,0,12,0,0,0,0,16,1,0,2,0,0,0,2,0,0,0,0,0,0,0,0],"split_type":[0,0,0,0,0,0,0,0,0,0,0,0,0,0,0,0,0,0,0,0,0,0,0,0,0],"sum_hessian":[9E1,2E0,8.8E1,4E0,8.4E1,2E0,2E0,5.7E1,2.7E1,3.1E1,2.6E1,1.6E1,1.5E1,2.4E1,2E0,9E0,7E0,2E0,1.3E1,6E0,3E0,4E0,3E0,2E0,4E0],"tree_param":{"num_deleted":"0","num_feature":"53","num_nodes":"25","size_leaf_vector":"0"}},{"base_weights":[3.0833084E1,4.1256127E0,3.1371176E1,1.40512E1,3.1969223E1,4.540271E0,1.8026808E1,3.227754E1,1.1592641E1,2.6954079E1,3.5238132E1,1.7761793E1,3.0164978E1,2.0320389E1,2.7787995E0,3.2018593E1,1.1863473E1,2.4008148E1,3.0401158E0,2.8698435E1,5.5962076E0],"categories":[],"categories_nodes":[],"categories_segments":[],"categories_sizes":[],"default_left":[1,0,1,1,1,0,0,1,0,1,0,1,1,1,0,0,0,1,0,0,0],"id":48,"left_children":[1,-1,3,5,7,-1,-1,9,-1,11,-1,13,15,17,-1,-1,-1,19,-1,-1,-1],"loss_changes":[1.1438281E3,0E0,3.410078E2,9.4001465E1,4.9453125E1,0E0,0E0,7.8125E1,0E0,3.4537695E2,0E0,3.9812012E2,3.3054492E2,5.614888E2,0E0,0E0,0E0,5.0798193E2,0E0,0E0,0E0],"parents":[2147483647,0,0,2,2,3,3,4,4,7,7,9,9,11,11,12,12,13,13,17,17],"right_children":[2,-1,4,6,8,-1,-1,10,-1,12,-1,14,16,18,-1,-1,-1,20,-1,-1,-1],"split_conditions":[4.955E2,2.0628063E-2,5E-1,1.5E0,5E-1,2.2701353E-2,9.013404E-2,1.07E2,5.7963204E-2,7.2807245E0,1.7619066E-1,5E-1,1.015E2,5E-1,1.3893997E-2,1.6009296E-1,5.931736E-2,5E-1,1.5200579E-2,1.4349218E-1,2.7981037E-2],"split_indices":[1,0,3,5,38,0,0,0,0,2,0,31,0,5,0,0,0,50,0,0,0],"split_type":[0,0,0,0,0,0,0,0,0,0,0,0,0,0,0,0,0,0,0,0,0],"sum_hessian":[9E1,2E0,8.8E1,4E0,8.4E1,2E0,2E0,8.2E1,2E0,3.4E1,4.8E1,1.1E1,2.3E1,9E0,2E0,2E1,3E0,7E0,2E0,5E0,2E0],"tree_param":{"num_deleted":"0","num_feature":"53","num_nodes":"21","size_leaf_vector":"0"}},{"base_weights":[3.0690134E1,4.113111E0,3.1225487E1,1.400862E1,3.1819345E1,4.510419E0,1.7988274E1,2.8589321E1,3.701176E1,2.3419586E1,3.3344498E1,1.4970246E1,3.051947E1,3.43722E1,1.232975E1,1.9603285E1,6.876077E0,1.1288578E1,3.218287E1,1.1415334E1,2.7577185E1,8.52554E0,2.7642038E0,3.4115402E1,1.2301692E1,1.9326643E1,3.6894362E0],"categories":[],"categories_nodes":[],"categories_segments":[],"categories_sizes":[],"default_left":[1,0,1,1,1,0,0,1,0,1,1,1,1,0,0,1,1,0,1,1,0,0,0,0,0,0,0],"id":49,"left_children":[1,-1,3,5,7,-1,-1,9,-1,11,13,15,17,-1,-1,19,21,-1,23,25,-1,-1,-1,-1,-1,-1,-1],"loss_changes":[1.1320469E3,0E0,3.3357812E2,9.486243E1,5.503125E1,0E0,0E0,4.180039E2,0E0,1.3437031E3,3.8654297E1,4.7352808E2,4.912793E1,0E0,0E0,2.6324243E2,2.5657532E1,0E0,3.8398438E0,3.534947E2,0E0,0E0,0E0,0E0,0E0,0E0,0E0],"parents":[2147483647,0,0,2,2,3,3,4,4,7,7,9,9,10,10,11,11,12,12,15,15,16,16,18,18,19,19],"right_children":[2,-1,4,6,8,-1,-1,10,-1,12,14,16,18,-1,-1,20,22,-1,24,26,-1,-1,-1,-1,-1,-1,-1],"split_conditions":[4.955E2,2.0565554E-2,5E-1,1.22E2,5E-1,2.2552093E-2,8.994137E-2,1.18E2,1.850588E-1,5E-1,1.139E3,9.45E1,7.037227E0,1.71861E-1,6.164875E-2,9E1,7.2625103E0,5.644289E-2,5E-1,8.25E1,1.3788591E-1,4.26277E-2,1.3821019E-2,1.70577E-1,6.1508458E-2,9.663321E-2,1.8447181E-2],"split_indices":[1,0,3,0,12,0,0,0,0,16,1,0,2,0,0,0,2,0,42,0,0,0,0,0,0,0,0],"split_type":[0,0,0,0,0,0,0,0,0,0,0,0,0,0,0,0,0,0,0,0,0,0,0,0,0,0,0],"sum_hessian":[9E1,2E0,8.8E1,4E0,8.4E1,2E0,2E0,5.7E1,2.7E1,3.1E1,2.6E1,1.6E1,1.5E1,2.4E1,2E0,9E0,7E0,2E0,1.3E1,6E0,3E0,4E0,3E0,1.1E1,2E0,2E0,4E0],"tree_param":{"num_deleted":"0","num_feature":"53","num_nodes":"27","size_leaf_vector":"0"}},{"base_weights":[3.0553051E1,4.1006474E0,3.1085794E1,1.396617E1,3.1675741E1,4.4924235E0,1.7938093E1,2.8464916E1,3.68352E1,2.3326553E1,3.3188896E1,1.4918646E1,3.0389885E1,3.420917E1,1.2292387E1,1.9537195E1,6.8505383E0,1.125437E1,3.2043056E1,1.137875E1,2.7480986E1,8.493369E0,2.7545612E0,3.3962856E1,1.2264414E1,1.9268078E1,3.6755137E0],"categories":[],"categories_nodes":[],"categories_segments":[],"categories_sizes":[],"default_left":[1,0,1,1,1,0,0,1,0,1,1,1,1,0,0,1,1,0,1,1,0,0,0,0,0,0,0],"id":50,"left_children":[1,-1,3,5,7,-1,-1,9,-1,11,13,15,17,-1,-1,19,21,-1,23,25,-1,-1,-1,-1,-1,-1,-1],"loss_changes":[1.1209297E3,0E0,3.2679688E2,9.4672485E1,5.0023438E1,0E0,0E0,4.0870703E2,0E0,1.3288398E3,3.5371094E1,4.7065625E2,4.682617E1,0E0,0E0,2.610232E2,2.5436493E1,0E0,1.4902344E0,3.515794E2,0E0,0E0,0E0,0E0,0E0,0E0,0E0],"parents":[2147483647,0,0,2,2,3,3,4,4,7,7,9,9,10,10,11,11,12,12,15,15,16,16,18,18,19,19],"right_children":[2,-1,4,6,8,-1,-1,10,-1,12,14,16,18,-1,-1,20,22,-1,24,26,-1,-1,-1,-1,-1,-1,-1],"split_conditions":[4.955E2,2.0503236E-2,5E-1,1.5E0,5E-1,2.2462117E-2,8.969046E-2,1.18E2,1.84176E-1,5E-1,1.139E3,9.45E1,7.037227E0,1.7104585E-1,6.1461933E-2,9E1,7.2625103E0,5.6271847E-2,5E-1,8.25E1,1.3740492E-1,4.2466845E-2,1.3772805E-2,1.6981427E-1,6.1322067E-2,9.634039E-2,1.8377569E-2],"split_indices":[1,0,3,5,12,0,0,0,0,16,1,0,2,0,0,0,2,0,42,0,0,0,0,0,0,0,0],"split_type":[0,0,0,0,0,0,0,0,0,0,0,0,0,0,0,0,0,0,0,0,0,0,0,0,0,0,0],"sum_hessian":[9E1,2E0,8.8E1,4E0,8.4E1,2E0,2E0,5.7E1,2.7E1,3.1E1,2.6E1,1.6E1,1.5E1,2.4E1,2E0,9E0,7E0,2E0,1.3E1,6E0,3E0,4E0,3E0,1.1E1,2E0,2E0,4E0],"tree_param":{"num_deleted":"0","num_feature":"53","num_nodes":"27","size_leaf_vector":"0"}},{"base_weights":[3.0416592E1,4.088221E0,3.0946737E1,1.3923848E1,3.1532793E1,4.4627657E0,1.7899778E1,3.1837477E1,1.1419836E1,2.660796E1,3.474241E1,1.756237E1,2.976312E1,2.0096779E1,2.7334335E0,3.1587063E1,1.1730094E1,2.3747896E1,2.9967554E0,2.8388182E1,5.5339346E0],"categories":[],"categories_nodes":[],"categories_segments":[],"categories_sizes":[],"default_left":[1,0,1,1,1,0,0,1,0,1,0,1,1,1,0,0,0,1,0,0,0],"id":51,"left_children":[1,-1,3,5,7,-1,-1,9,-1,11,-1,13,15,17,-1,-1,-1,19,-1,-1,-1],"loss_changes":[1.1098984E3,0E0,3.2010938E2,9.5520874E1,5.00625E1,0E0,0E0,6.3703125E1,0E0,3.2795117E2,0E0,3.9085254E2,3.1757812E2,5.505552E2,0E0,0E0,0E0,4.9727197E2,0E0,0E0,0E0],"parents":[2147483647,0,0,2,2,3,3,4,4,7,7,9,9,11,11,12,12,13,13,17,17],"right_children":[2,-1,4,6,8,-1,-1,10,-1,12,-1,14,16,18,-1,-1,-1,20,-1,-1,-1],"split_conditions":[4.955E2,2.0441106E-2,5E-1,1.22E2,5E-1,2.2313828E-2,8.949889E-2,1.07E2,5.709918E-2,7.2807245E0,1.7371204E-1,5E-1,1.015E2,5E-1,1.3667167E-2,1.579353E-1,5.8650468E-2,5E-1,1.4983776E-2,1.419409E-1,2.7669672E-2],"split_indices":[1,0,3,0,38,0,0,0,0,2,0,31,0,5,0,0,0,50,0,0,0],"split_type":[0,0,0,0,0,0,0,0,0,0,0,0,0,0,0,0,0,0,0,0,0],"sum_hessian":[9E1,2E0,8.8E1,4E0,8.4E1,2E0,2E0,8.2E1,2E0,3.4E1,4.8E1,1.1E1,2.3E1,9E0,2E0,2E1,3E0,7E0,2E0,5E0,2E0],"tree_param":{"num_deleted":"0","num_feature":"53","num_nodes":"21","size_leaf_vector":"0"}},{"base_weights":[3.0275585E1,4.0758324E0,3.080303E1,1.3881655E1,3.138497E1,4.4449277E0,1.7849852E1,2.8200241E1,3.650402E1,2.3119558E1,3.2868584E1,1.4780135E1,3.012671E1,3.3882126E1,1.21498575E1,1.9363089E1,6.7778955E0,1.1168868E1,3.1762806E1,1.1254465E1,2.7274933E1,8.412363E0,2.7141883E0,3.3673973E1,1.212675E1,1.9123665E1,3.5942461E0],"categories":[],"categories_nodes":[],"categories_segments":[],"categories_sizes":[],"default_left":[1,0,1,1,1,0,0,1,0,1,1,1,1,0,0,1,1,0,1,1,0,0,0,0,0,0,0],"id":52,"left_children":[1,-1,3,5,7,-1,-1,9,-1,11,13,15,17,-1,-1,19,21,-1,23,25,-1,-1,-1,-1,-1,-1,-1],"loss_changes":[1.0984688E3,0E0,3.1297656E2,9.5324524E1,5.2375E1,0E0,0E0,3.9490234E2,0E0,1.3086113E3,3.8123047E1,4.6384497E2,4.439258E1,0E0,0E0,2.6173413E2,2.5446045E1,0E0,5.783203E0,3.5068695E2,0E0,0E0,0E0,0E0,0E0,0E0,0E0],"parents":[2147483647,0,0,2,2,3,3,4,4,7,7,9,9,10,10,11,11,12,12,15,15,16,16,18,18,19,19],"right_children":[2,-1,4,6,8,-1,-1,10,-1,12,14,16,18,-1,-1,20,22,-1,24,26,-1,-1,-1,-1,-1,-1,-1],"split_conditions":[4.955E2,2.0379161E-2,5E-1,1.5E0,5E-1,2.2224639E-2,8.924925E-2,1.18E2,1.825201E-1,5E-1,1.139E3,9.45E1,7.037227E0,1.6941063E-1,6.0749285E-2,9E1,7.2625103E0,5.584434E-2,5E-1,8.25E1,1.3637467E-1,4.2061813E-2,1.3570941E-2,1.6836986E-1,6.063375E-2,9.561832E-2,1.797123E-2],"split_indices":[1,0,3,5,12,0,0,0,0,16,1,0,2,0,0,0,2,0,42,0,0,0,0,0,0,0,0],"split_type":[0,0,0,0,0,0,0,0,0,0,0,0,0,0,0,0,0,0,0,0,0,0,0,0,0,0,0],"sum_hessian":[9E1,2E0,8.8E1,4E0,8.4E1,2E0,2E0,5.7E1,2.7E1,3.1E1,2.6E1,1.6E1,1.5E1,2.4E1,2E0,9E0,7E0,2E0,1.3E1,6E0,3E0,4E0,3E0,1.1E1,2E0,2E0,4E0],"tree_param":{"num_deleted":"0","num_feature":"53","num_nodes":"27","size_leaf_vector":"0"}},{"base_weights":[3.0140368E1,4.0634813E0,3.0665241E1,1.3839589E1,3.1243332E1,4.4154625E0,1.7811756E1,3.1545134E1,1.1317175E1,2.6378044E1,3.4413074E1,1.7430342E1,2.9495956E1,1.9947596E1,2.7069585E0,3.1299707E1,1.1643707E1,2.3573078E1,2.970816E0,2.817837E1,5.4947963E0],"categories":[],"categories_nodes":[],"categories_segments":[],"categories_sizes":[],"default_left":[1,0,1,1,1,0,0,1,0,1,0,1,1,1,0,0,0,1,0,0,0],"id":53,"left_children":[1,-1,3,5,7,-1,-1,9,-1,11,-1,13,15,17,-1,-1,-1,19,-1,-1,-1],"loss_changes":[1.0876406E3,0E0,3.0647656E2,9.615997E1,4.8867188E1,0E0,0E0,5.4359375E1,0E0,3.1644336E2,0E0,3.8567188E2,3.0870898E2,5.4291455E2,0E0,0E0,0E0,4.897378E2,0E0,0E0,0E0],"parents":[2147483647,0,0,2,2,3,3,4,4,7,7,9,9,11,11,12,12,13,13,17,17],"right_children":[2,-1,4,6,8,-1,-1,10,-1,12,-1,14,16,18,-1,-1,-1,20,-1,-1,-1],"split_conditions":[4.955E2,2.0317405E-2,5E-1,1.22E2,5E-1,2.2077313E-2,8.905878E-2,1.07E2,5.6585874E-2,7.2807245E0,1.7206536E-1,5E-1,1.015E2,5E-1,1.3534793E-2,1.5649854E-1,5.8218535E-2,5E-1,1.4854079E-2,1.4089185E-1,2.747398E-2],"split_indices":[1,0,3,0,38,0,0,0,0,2,0,31,0,5,0,0,0,50,0,0,0],"split_type":[0,0,0,0,0,0,0,0,0,0,0,0,0,0,0,0,0,0,0,0,0],"sum_hessian":[9E1,2E0,8.8E1,4E0,8.4E1,2E0,2E0,8.2E1,2E0,3.4E1,4.8E1,1.1E1,2.3E1,9E0,2E0,2E1,3E0,7E0,2E0,5E0,2E0],"tree_param":{"num_deleted":"0","num_feature":"53","num_nodes":"21","size_leaf_vector":"0"}},{"base_weights":[3.0000652E1,4.051168E0,3.0522852E1,1.3797651E1,3.109687E1,4.3977804E0,1.7762083E1,2.7938015E1,3.6175858E1,2.2914398E1,3.255133E1,1.4642862E1,2.986586E1,3.3558197E1,1.2008758E1,1.9190514E1,6.7059326E0,1.1084003E1,3.1485056E1,1.1131328E1,2.7070602E1,8.33212E0,2.6741874E0,3.338763E1,1.19904375E1,1.8980326E1,3.5138896E0],"categories":[],"categories_nodes":[],"categories_segments":[],"categories_sizes":[],"default_left":[1,0,1,1,1,0,0,1,0,1,1,1,1,0,0,1,1,0,1,1,0,0,0,0,0,0,0],"id":54,"left_children":[1,-1,3,5,7,-1,-1,9,-1,11,13,15,17,-1,-1,19,21,-1,23,25,-1,-1,-1,-1,-1,-1,-1],"loss_changes":[1.0764453E3,0E0,2.9953906E2,9.595764E1,5.465625E1,0E0,0E0,3.8147656E2,0E0,1.288709E3,4.0773438E1,4.5713574E2,4.2030273E1,0E0,0E0,2.623921E2,2.5451752E1,0E0,9.956055E0,3.4975836E2,0E0,0E0,0E0,0E0,0E0,0E0,0E0],"parents":[2147483647,0,0,2,2,3,3,4,4,7,7,9,9,10,10,11,11,12,12,15,15,16,16,18,18,19,19],"right_children":[2,-1,4,6,8,-1,-1,10,-1,12,14,16,18,-1,-1,20,22,-1,24,26,-1,-1,-1,-1,-1,-1,-1],"split_conditions":[4.955E2,2.025584E-2,5E-1,1.5E0,5E-1,2.1988902E-2,8.8810414E-2,1.18E2,1.8087928E-1,5E-1,1.139E3,9.45E1,7.037227E0,1.6779098E-1,6.0043786E-2,9E1,7.2625103E0,5.5420015E-2,5E-1,8.25E1,1.3535301E-1,4.16606E-2,1.3370937E-2,1.6693816E-1,5.9952185E-2,9.490163E-2,1.7569447E-2],"split_indices":[1,0,3,5,12,0,0,0,0,16,1,0,2,0,0,0,2,0,42,0,0,0,0,0,0,0,0],"split_type":[0,0,0,0,0,0,0,0,0,0,0,0,0,0,0,0,0,0,0,0,0,0,0,0,0,0,0],"sum_hessian":[9E1,2E0,8.8E1,4E0,8.4E1,2E0,2E0,5.7E1,2.7E1,3.1E1,2.6E1,1.6E1,1.5E1,2.4E1,2E0,9E0,7E0,2E0,1.3E1,6E0,3E0,4E0,3E0,1.1E1,2E0,2E0,4E0],"tree_param":{"num_deleted":"0","num_feature":"53","num_nodes":"27","size_leaf_vector":"0"}},{"base_weights":[2.9866665E1,4.038892E0,3.0386318E1,1.3755839E1,3.0956533E1,4.368507E0,1.7724205E1,2.7816454E1,3.600329E1,2.2823378E1,3.239942E1,1.4592406E1,2.9739048E1,3.3399025E1,1.1972367E1,1.912584E1,6.6810226E0,1.1050416E1,3.1348259E1,1.1095699E1,2.697617E1,8.300678E0,2.6648588E0,3.323834E1,1.1954103E1,1.892281E1,3.5006294E0],"categories":[],"categories_nodes":[],"categories_segments":[],"categories_sizes":[],"default_left":[1,0,1,1,1,0,0,1,0,1,1,1,1,0,0,1,1,0,1,1,0,0,0,0,0,0,0],"id":55,"left_children":[1,-1,3,5,7,-1,-1,9,-1,11,13,15,17,-1,-1,19,21,-1,23,25,-1,-1,-1,-1,-1,-1,-1],"loss_changes":[1.0658281E3,0E0,2.9325E2,9.678064E1,4.9835938E1,0E0,0E0,3.7278906E2,0E0,1.2744512E3,3.7609375E1,4.5436304E2,3.9870117E1,0E0,0E0,2.6018848E2,2.5233612E1,0E0,7.651367E0,3.4785223E2,0E0,0E0,0E0,0E0,0E0,0E0,0E0],"parents":[2147483647,0,0,2,2,3,3,4,4,7,7,9,9,10,10,11,11,12,12,15,15,16,16,18,18,19,19],"right_children":[2,-1,4,6,8,-1,-1,10,-1,12,14,16,18,-1,-1,20,22,-1,24,26,-1,-1,-1,-1,-1,-1,-1],"split_conditions":[4.955E2,2.0194458E-2,5E-1,1.22E2,5E-1,2.1842534E-2,8.862102E-2,1.18E2,1.8001644E-1,5E-1,1.139E3,9.45E1,7.037227E0,1.6699512E-1,5.9861835E-2,9E1,7.2625103E0,5.525208E-2,5E-1,8.25E1,1.3488084E-1,4.1503392E-2,1.3324294E-2,1.6619168E-1,5.9770517E-2,9.4614044E-2,1.7503146E-2],"split_indices":[1,0,3,0,12,0,0,0,0,16,1,0,2,0,0,0,2,0,42,0,0,0,0,0,0,0,0],"split_type":[0,0,0,0,0,0,0,0,0,0,0,0,0,0,0,0,0,0,0,0,0,0,0,0,0,0,0],"sum_hessian":[9E1,2E0,8.8E1,4E0,8.4E1,2E0,2E0,5.7E1,2.7E1,3.1E1,2.6E1,1.6E1,1.5E1,2.4E1,2E0,9E0,7E0,2E0,1.3E1,6E0,3E0,4E0,3E0,1.1E1,2E0,2E0,4E0],"tree_param":{"num_deleted":"0","num_feature":"53","num_nodes":"27","size_leaf_vector":"0"}},{"base_weights":[2.9733288E1,4.026653E0,3.0250406E1,1.3714155E1,3.0816837E1,4.35098E0,1.7674786E1,3.1115088E1,1.1148317E1,2.6039476E1,3.392887E1,1.7235096E1,2.9102955E1,1.9728546E1,2.6629262E0,3.08777E1,1.1513201E1,2.331806E1,2.9285228E0,2.7874249E1,5.4339805E0],"categories":[],"categories_nodes":[],"categories_segments":[],"categories_sizes":[],"default_left":[1,0,1,1,1,0,0,1,0,1,0,1,1,1,0,0,0,1,0,0,0],"id":56,"left_children":[1,-1,3,5,7,-1,-1,9,-1,11,-1,13,15,17,-1,-1,-1,19,-1,-1,-1],"loss_changes":[1.0553516E3,0E0,2.8702344E2,9.657214E1,4.9421875E1,0E0,0E0,4.1132812E1,0E0,3.0004297E2,0E0,3.786233E2,2.9643164E2,5.323572E2,0E0,0E0,0E0,4.7940234E2,0E0,0E0,0E0],"parents":[2147483647,0,0,2,2,3,3,4,4,7,7,9,9,11,11,12,12,13,13,17,17],"right_children":[2,-1,4,6,8,-1,-1,10,-1,12,-1,14,16,18,-1,-1,-1,20,-1,-1,-1],"split_conditions":[4.955E2,2.0133264E-2,5E-1,1.5E0,5E-1,2.1754898E-2,8.837393E-2,1.07E2,5.5741586E-2,7.2807245E0,1.6964436E-1,5E-1,1.015E2,5E-1,1.3314631E-2,1.543885E-1,5.7566002E-2,5E-1,1.4642614E-2,1.3937125E-1,2.7169902E-2],"split_indices":[1,0,3,5,38,0,0,0,0,2,0,31,0,5,0,0,0,50,0,0,0],"split_type":[0,0,0,0,0,0,0,0,0,0,0,0,0,0,0,0,0,0,0,0,0],"sum_hessian":[9E1,2E0,8.8E1,4E0,8.4E1,2E0,2E0,8.2E1,2E0,3.4E1,4.8E1,1.1E1,2.3E1,9E0,2E0,2E1,3E0,7E0,2E0,5E0,2E0],"tree_param":{"num_deleted":"0","num_feature":"53","num_nodes":"21","size_leaf_vector":"0"}},{"base_weights":[2.9595472E1,4.0144506E0,3.0109955E1,1.3672597E1,3.0672382E1,4.321896E0,1.7637123E1,2.7557817E1,3.5679626E1,2.2620897E1,3.208666E1,1.4456905E1,2.9481627E1,3.3079685E1,1.1833273E1,1.8955446E1,6.610046E0,1.0966462E1,3.107421E1,1.0974159E1,2.6774355E1,8.221554E0,2.6253827E0,3.295579E1,1.1819687E1,1.8781E1,3.421521E0],"categories":[],"categories_nodes":[],"categories_segments":[],"categories_sizes":[],"default_left":[1,0,1,1,1,0,0,1,0,1,1,1,1,0,0,1,1,0,1,1,0,0,0,0,0,0,0],"id":57,"left_children":[1,-1,3,5,7,-1,-1,9,-1,11,13,15,17,-1,-1,19,21,-1,23,25,-1,-1,-1,-1,-1,-1,-1],"loss_changes":[1.0444609E3,0E0,2.803828E2,9.738324E1,5.2070312E1,0E0,0E0,3.5991797E2,0E0,1.2550762E3,4.0185547E1,4.4779468E2,3.7629883E1,0E0,0E0,2.6079663E2,2.5236847E1,0E0,1.16875E1,3.4688696E2,0E0,0E0,0E0,0E0,0E0,0E0,0E0],"parents":[2147483647,0,0,2,2,3,3,4,4,7,7,9,9,10,10,11,11,12,12,15,15,16,16,18,18,19,19],"right_children":[2,-1,4,6,8,-1,-1,10,-1,12,14,16,18,-1,-1,20,22,-1,24,26,-1,-1,-1,-1,-1,-1,-1],"split_conditions":[4.955E2,2.0072252E-2,5E-1,1.22E2,5E-1,2.160948E-2,8.8185616E-2,1.18E2,1.7839813E-1,5E-1,1.139E3,9.45E1,7.037227E0,1.6539842E-1,5.9166364E-2,9E1,7.2625103E0,5.483231E-2,5E-1,8.25E1,1.3387178E-1,4.1107766E-2,1.3126913E-2,1.6477895E-1,5.9098434E-2,9.3905E-2,1.7107604E-2],"split_indices":[1,0,3,0,12,0,0,0,0,16,1,0,2,0,0,0,2,0,42,0,0,0,0,0,0,0,0],"split_type":[0,0,0,0,0,0,0,0,0,0,0,0,0,0,0,0,0,0,0,0,0,0,0,0,0,0,0],"sum_hessian":[9E1,2E0,8.8E1,4E0,8.4E1,2E0,2E0,5.7E1,2.7E1,3.1E1,2.6E1,1.6E1,1.5E1,2.4E1,2E0,9E0,7E0,2E0,1.3E1,6E0,3E0,4E0,3E0,1.1E1,2E0,2E0,4E0],"tree_param":{"num_deleted":"0","num_feature":"53","num_nodes":"27","size_leaf_vector":"0"}},{"base_weights":[2.946331E1,4.0022855E0,2.9975283E1,1.36311655E1,3.0533968E1,4.304524E0,1.7587954E1,3.0829401E1,1.10480175E1,2.5814558E1,3.3607204E1,1.7105751E1,2.8841694E1,3.4149788E1,1.2590979E1,1.9582323E1,2.6372156E0,3.059672E1,1.1428613E1,2.3146666E1,2.9032137E0,2.7668488E1,5.395714E0],"categories":[],"categories_nodes":[],"categories_segments":[],"categories_sizes":[],"default_left":[1,0,1,1,1,0,0,1,0,1,1,1,1,0,0,1,0,0,0,1,0,0,0],"id":58,"left_children":[1,-1,3,5,7,-1,-1,9,-1,11,13,15,17,-1,-1,19,-1,-1,-1,21,-1,-1,-1],"loss_changes":[1.0341562E3,0E0,2.7435156E2,9.716858E1,4.8273438E1,0E0,0E0,3.2570312E1,0E0,2.8923438E2,3.1953125E0,3.7360205E2,2.8803906E2,0E0,0E0,5.249763E2,0E0,0E0,0E0,4.721338E2,0E0,0E0,0E0],"parents":[2147483647,0,0,2,2,3,3,4,4,7,7,9,9,10,10,11,11,12,12,15,15,19,19],"right_children":[2,-1,4,6,8,-1,-1,10,-1,12,14,16,18,-1,-1,20,-1,-1,-1,22,-1,-1,-1],"split_conditions":[4.955E2,2.0011427E-2,5E-1,1.5E0,5E-1,2.1522619E-2,8.793977E-2,1.07E2,5.5240087E-2,7.2807245E0,1.5E0,5E-1,1.015E2,1.7074893E-1,6.2954895E-2,5E-1,1.3186078E-2,1.5298359E-1,5.7143062E-2,5E-1,1.4516069E-2,1.3834244E-1,2.697857E-2],"split_indices":[1,0,3,5,38,0,0,0,0,2,42,31,0,0,0,5,0,0,0,50,0,0,0],"split_type":[0,0,0,0,0,0,0,0,0,0,0,0,0,0,0,0,0,0,0,0,0,0,0],"sum_hessian":[9E1,2E0,8.8E1,4E0,8.4E1,2E0,2E0,8.2E1,2E0,3.4E1,4.8E1,1.1E1,2.3E1,4.6E1,2E0,9E0,2E0,2E1,3E0,7E0,2E0,5E0,2E0],"tree_param":{"num_deleted":"0","num_feature":"53","num_nodes":"23","size_leaf_vector":"0"}},{"base_weights":[2.9327692E1,3.9901576E0,2.9837074E1,1.3589859E1,3.0391846E1,4.275629E0,1.7550508E1,2.7303831E1,3.5357285E1,2.242313E1,3.1778252E1,1.4322459E1,2.9232426E1,3.276507E1,1.1693932E1,1.878655E1,6.539407E0,1.0883134E1,3.0809385E1,1.0853741E1,2.6574223E1,8.142663E0,2.5862703E0,3.267507E1,1.1718434E1,1.8640245E1,3.343302E0],"categories":[],"categories_nodes":[],"categories_segments":[],"categories_sizes":[],"default_left":[1,0,1,1,1,0,0,1,0,1,1,1,1,0,0,1,1,0,1,1,0,0,0,0,0,0,0],"id":59,"left_children":[1,-1,3,5,7,-1,-1,9,-1,11,13,15,17,-1,-1,19,21,-1,23,25,-1,-1,-1,-1,-1,-1,-1],"loss_changes":[1.02360156E3,0E0,2.6798438E2,9.796777E1,5.2929688E1,0E0,0E0,3.4683594E2,0E0,1.2373799E3,4.2978516E1,4.4136743E2,3.5765625E1,0E0,0E0,2.6135547E2,2.52276E1,0E0,1.1560547E1,3.4588843E2,0E0,0E0,0E0,0E0,0E0,0E0,0E0],"parents":[2147483647,0,0,2,2,3,3,4,4,7,7,9,9,10,10,11,11,12,12,15,15,16,16,18,18,19,19],"right_children":[2,-1,4,6,8,-1,-1,10,-1,12,14,16,18,-1,-1,20,22,-1,24,26,-1,-1,-1,-1,-1,-1,-1],"split_conditions":[4.955E2,1.9950788E-2,5E-1,1.22E2,5E-1,2.1378145E-2,8.775254E-2,1.18E2,1.7678642E-1,5E-1,1.139E3,9.45E1,7.037227E0,1.6382536E-1,5.8469657E-2,9E1,7.2625103E0,5.441567E-2,5E-1,8.25E1,1.328711E-1,4.0713314E-2,1.2931352E-2,1.6337535E-1,5.859217E-2,9.320123E-2,1.671651E-2],"split_indices":[1,0,3,0,12,0,0,0,0,16,1,0,2,0,0,0,2,0,42,0,0,0,0,0,0,0,0],"split_type":[0,0,0,0,0,0,0,0,0,0,0,0,0,0,0,0,0,0,0,0,0,0,0,0,0,0,0],"sum_hessian":[9E1,2E0,8.8E1,4E0,8.4E1,2E0,2E0,5.7E1,2.7E1,3.1E1,2.6E1,1.6E1,1.5E1,2.4E1,2E0,9E0,7E0,2E0,1.3E1,6E0,3E0,4E0,3E0,1.1E1,2E0,2E0,4E0],"tree_param":{"num_deleted":"0","num_feature":"53","num_nodes":"27","size_leaf_vector":"0"}},{"base_weights":[2.919673E1,3.978066E0,2.9703627E1,1.3548677E1,3.02547E1,4.25841E0,1.7501587E1,2.7185041E1,3.5188618E1,2.2334068E1,3.1629946E1,1.4273122E1,2.9108307E1,3.260966E1,1.1658494E1,1.872326E1,6.5151124E0,1.0850154E1,3.0675518E1,1.0819046E1,2.6481522E1,8.111937E0,2.5772486E0,3.2528965E1,1.1682923E1,1.8583757E1,3.3306856E0],"categories":[],"categories_nodes":[],"categories_segments":[],"categories_sizes":[],"default_left":[1,0,1,1,1,0,0,1,0,1,1,1,1,0,0,1,1,0,1,1,0,0,0,0,0,0,0],"id":60,"left_children":[1,-1,3,5,7,-1,-1,9,-1,11,13,15,17,-1,-1,19,21,-1,23,25,-1,-1,-1,-1,-1,-1,-1],"loss_changes":[1.0134922E3,0E0,2.62125E2,9.774725E1,4.8335938E1,0E0,0E0,3.3871094E2,0E0,1.2236914E3,3.9927734E1,4.386897E2,3.3731445E1,0E0,0E0,2.5917017E2,2.5012604E1,0E0,9.341797E0,3.439926E2,0E0,0E0,0E0,0E0,0E0,0E0,0E0],"parents":[2147483647,0,0,2,2,3,3,4,4,7,7,9,9,10,10,11,11,12,12,15,15,16,16,18,18,19,19],"right_children":[2,-1,4,6,8,-1,-1,10,-1,12,14,16,18,-1,-1,20,22,-1,24,26,-1,-1,-1,-1,-1,-1,-1],"split_conditions":[4.955E2,1.9890329E-2,5E-1,1.5E0,5E-1,2.129205E-2,8.750793E-2,1.18E2,1.7594309E-1,5E-1,1.139E3,9.45E1,7.037227E0,1.630483E-1,5.8292467E-2,9E1,7.2625103E0,5.425077E-2,5E-1,8.25E1,1.324076E-1,4.0559683E-2,1.2886243E-2,1.6264482E-1,5.8414616E-2,9.291878E-2,1.6653428E-2],"split_indices":[1,0,3,5,12,0,0,0,0,16,1,0,2,0,0,0,2,0,42,0,0,0,0,0,0,0,0],"split_type":[0,0,0,0,0,0,0,0,0,0,0,0,0,0,0,0,0,0,0,0,0,0,0,0,0,0,0],"sum_hessian":[9E1,2E0,8.8E1,4E0,8.4E1,2E0,2E0,5.7E1,2.7E1,3.1E1,2.6E1,1.6E1,1.5E1,2.4E1,2E0,9E0,7E0,2E0,1.3E1,6E0,3E0,4E0,3E0,1.1E1,2E0,2E0,4E0],"tree_param":{"num_deleted":"0","num_feature":"53","num_nodes":"27","size_leaf_vector":"0"}},{"base_weights":[2.9066362E1,3.9660113E0,2.9570784E1,1.3507622E1,3.011818E1,4.2297034E0,1.7464355E1,3.0410164E1,1.0883023E1,2.5483374E1,3.3135975E1,1.6914597E1,2.8457348E1,3.3670677E1,1.2418314E1,1.9367743E1,2.5944839E0,3.018402E1,1.1300919E1,2.2896778E1,2.8619645E0,2.737038E1,5.336322E0],"categories":[],"categories_nodes":[],"categories_segments":[],"categories_sizes":[],"default_left":[1,0,1,1,1,0,0,1,0,1,1,1,1,0,0,1,0,0,0,1,0,0,0],"id":61,"left_children":[1,-1,3,5,7,-1,-1,9,-1,11,13,15,17,-1,-1,19,-1,-1,-1,21,-1,-1,-1],"loss_changes":[1.0035156E3,0E0,2.563125E2,9.8534546E1,4.884375E1,0E0,0E0,2.09375E1,0E0,2.738164E2,2.5585938E0,3.667661E2,2.764121E2,0E0,0E0,5.147815E2,0E0,0E0,0E0,4.6216064E2,0E0,0E0,0E0],"parents":[2147483647,0,0,2,2,3,3,4,4,7,7,9,9,10,10,11,11,12,12,15,15,19,19],"right_children":[2,-1,4,6,8,-1,-1,10,-1,12,14,16,18,-1,-1,20,-1,-1,-1,22,-1,-1,-1],"split_conditions":[4.955E2,1.9830056E-2,5E-1,1.22E2,5E-1,2.1148516E-2,8.732177E-2,1.07E2,5.4415114E-2,7.2807245E0,1.5E0,5E-1,1.015E2,1.6835338E-1,6.209157E-2,5E-1,1.2972419E-2,1.509201E-1,5.6504592E-2,5E-1,1.4309822E-2,1.3685189E-1,2.668161E-2],"split_indices":[1,0,3,0,38,0,0,0,0,2,42,31,0,0,0,5,0,0,0,50,0,0,0],"split_type":[0,0,0,0,0,0,0,0,0,0,0,0,0,0,0,0,0,0,0,0,0,0,0],"sum_hessian":[9E1,2E0,8.8E1,4E0,8.4E1,2E0,2E0,8.2E1,2E0,3.4E1,4.8E1,1.1E1,2.3E1,4.6E1,2E0,9E0,2E0,2E1,3E0,7E0,2E0,5E0,2E0],"tree_param":{"num_deleted":"0","num_feature":"53","num_nodes":"23","size_leaf_vector":"0"}},{"base_weights":[2.8932583E1,3.953993E0,2.9434454E1,1.3466689E1,2.9977999E1,4.212636E0,1.7415682E1,2.6934517E1,3.48707E1,2.11961E1,3.0415163E1,1.4070171E1,2.7819822E1,3.1167936E1,1.1293491E1,1.8556501E1,3.8320115E0,3.1997839E1,1.1521133E1,1.070019E1,2.6283854E1,1.8444504E1,3.2536843E0],"categories":[],"categories_nodes":[],"categories_segments":[],"categories_sizes":[],"default_left":[1,0,1,1,1,0,0,1,0,1,1,1,0,1,0,1,0,0,0,1,0,0,0],"id":62,"left_children":[1,-1,3,5,7,-1,-1,9,-1,11,13,15,-1,17,-1,19,-1,-1,-1,21,-1,-1,-1],"loss_changes":[9.9322656E2,0E0,2.5024219E2,9.830853E1,4.9195312E1,0E0,0E0,3.263672E2,0E0,7.325049E2,2.1736328E1,6.103147E2,0E0,3.109961E1,0E0,2.5968213E2,0E0,0E0,0E0,3.4296057E2,0E0,0E0,0E0],"parents":[2147483647,0,0,2,2,3,3,4,4,7,7,9,9,10,10,11,11,13,13,15,15,19,19],"right_children":[2,-1,4,6,8,-1,-1,10,-1,12,14,16,-1,18,-1,20,-1,-1,-1,22,-1,-1,-1],"split_conditions":[4.955E2,1.9769965E-2,5E-1,1.5E0,5E-1,2.1063179E-2,8.707841E-2,1.08E2,1.743535E-1,5E-1,1.5E0,9.45E1,1.390991E-1,1.139E3,5.6467455E-2,9E1,1.9160056E-2,1.599892E-1,5.7605665E-2,8.25E1,1.3141927E-1,9.222252E-2,1.6268421E-2],"split_indices":[1,0,3,5,12,0,0,0,0,16,21,0,0,1,0,0,0,0,0,0,0,0,0],"split_type":[0,0,0,0,0,0,0,0,0,0,0,0,0,0,0,0,0,0,0,0,0,0,0],"sum_hessian":[9E1,2E0,8.8E1,4E0,8.4E1,2E0,2E0,5.7E1,2.7E1,2.5E1,3.2E1,1.4E1,1.1E1,3E1,2E0,9E0,5E0,2.8E1,2E0,6E0,3E0,2E0,4E0],"tree_param":{"num_deleted":"0","num_feature":"53","num_nodes":"23","size_leaf_vector":"0"}},{"base_weights":[2.8801796E1,3.9420114E0,2.930118E1,1.342588E1,2.9841011E1,4.1841154E0,1.7378662E1,3.0130419E1,1.0780099E1,1.1111827E1,3.04206E1],"categories":[],"categories_nodes":[],"categories_segments":[],"categories_sizes":[],"default_left":[1,0,1,1,1,0,0,1,0,0,0],"id":63,"left_children":[1,-1,3,5,7,-1,-1,9,-1,-1,-1],"loss_changes":[9.832969E2,0E0,2.4446094E2,9.908411E1,4.828125E1,0E0,0E0,2.028125E1,0E0,0E0,0E0],"parents":[2147483647,0,0,2,2,3,3,4,4,7,7],"right_children":[2,-1,4,6,8,-1,-1,10,-1,-1,-1],"split_conditions":[4.955E2,1.9710056E-2,5E-1,1.22E2,5E-1,2.0920577E-2,8.6893305E-2,5.185E2,5.3900495E-2,5.5559132E-2,1.52103E-1],"split_indices":[1,0,3,0,38,0,0,1,0,0,0],"split_type":[0,0,0,0,0,0,0,0,0,0,0],"sum_hessian":[9E1,2E0,8.8E1,4E0,8.4E1,2E0,2E0,8.2E1,2E0,2E0,8E1],"tree_param":{"num_deleted":"0","num_feature":"53","num_nodes":"11","size_leaf_vector":"0"}},{"base_weights":[2.8663326E1,3.930066E0,2.9160051E1,2.6014793E1,3.4168335E1,4.1714363E0,2.667112E1,2.1905125E1,3.1039953E1,1.3955733E1,2.8595177E1,3.2007526E1,1.1394037E1,1.8370466E1,6.2913723E0,1.0620489E1,3.014362E1,1.0554218E1,2.6086046E1,7.8898087E0,2.4191632E0,3.1986444E1,1.1400155E1,1.8325684E1,3.1266115E0],"categories":[],"categories_nodes":[],"categories_segments":[],"categories_sizes":[],"default_left":[1,0,1,1,0,0,1,1,1,1,1,0,0,1,1,0,1,1,0,0,0,0,0,0,0],"id":64,"left_children":[1,-1,3,5,-1,-1,7,9,11,13,15,-1,-1,17,19,-1,21,23,-1,-1,-1,-1,-1,-1,-1],"loss_changes":[9.726875E2,0E0,2.5114844E2,7.1984766E2,0E0,0E0,3.300039E2,1.1989834E3,4.4839844E1,4.3511646E2,3.7492188E1,0E0,0E0,2.632478E2,2.6559906E1,0E0,1.9890625E1,3.4689435E2,0E0,0E0,0E0,0E0,0E0,0E0,0E0],"parents":[2147483647,0,0,2,2,3,3,6,6,7,7,8,8,9,9,10,10,13,13,14,14,16,16,17,17],"right_children":[2,-1,4,6,-1,-1,8,10,12,14,16,-1,-1,18,20,-1,22,24,-1,-1,-1,-1,-1,-1,-1],"split_conditions":[4.955E2,1.965033E-2,5E-1,5E-1,1.7084166E-1,2.0857181E-2,1.18E2,5E-1,1.139E3,9.45E1,7.037227E0,1.6003762E-1,5.6970187E-2,9E1,7.2625103E0,5.3102445E-2,5E-1,8.25E1,1.3043022E-1,3.9449044E-2,1.20958155E-2,1.5993223E-1,5.7000775E-2,9.162842E-2,1.5633058E-2],"split_indices":[1,0,12,3,0,0,0,16,1,0,2,0,0,0,2,0,42,0,0,0,0,0,0,0,0],"split_type":[0,0,0,0,0,0,0,0,0,0,0,0,0,0,0,0,0,0,0,0,0,0,0,0,0],"sum_hessian":[9E1,2E0,8.8E1,5.9E1,2.9E1,2E0,5.7E1,3.1E1,2.6E1,1.6E1,1.5E1,2.4E1,2E0,9E0,7E0,2E0,1.3E1,6E0,3E0,4E0,3E0,1.1E1,2E0,2E0,4E0],"tree_param":{"num_deleted":"0","num_feature":"53","num_nodes":"25","size_leaf_vector":"0"}},{"base_weights":[2.8534073E1,3.9181569E0,2.9028343E1,2.5901905E1,3.400482E1,4.158796E0,2.6555075E1,2.181811E1,3.0895086E1,1.3907689E1,2.8473738E1,3.1855711E1,1.1359509E1,1.8308613E1,6.2679887E0,1.0588305E1,3.0012623E1,1.0520549E1,2.5995049E1,7.8600364E0,2.4107242E0,3.1843416E1,1.1365609E1,1.8270151E1,3.1148129E0],"categories":[],"categories_nodes":[],"categories_segments":[],"categories_sizes":[],"default_left":[1,0,1,1,0,0,1,1,1,1,1,0,0,1,1,0,1,1,0,0,0,0,0,0,0],"id":65,"left_children":[1,-1,3,5,-1,-1,7,9,11,13,15,-1,-1,17,19,-1,21,23,-1,-1,-1,-1,-1,-1,-1],"loss_changes":[9.629844E2,0E0,2.4435938E2,7.128008E2,0E0,0E0,3.2226953E2,1.185752E3,4.1896484E1,4.324707E2,3.55166E1,0E0,0E0,2.610559E2,2.6336975E1,0E0,1.7688477E1,3.4497748E2,0E0,0E0,0E0,0E0,0E0,0E0,0E0],"parents":[2147483647,0,0,2,2,3,3,6,6,7,7,8,8,9,9,10,10,13,13,14,14,16,16,17,17],"right_children":[2,-1,4,6,-1,-1,8,10,12,14,16,-1,-1,18,20,-1,22,24,-1,-1,-1,-1,-1,-1,-1],"split_conditions":[4.955E2,1.9590784E-2,5E-1,5E-1,1.7002411E-1,2.0793978E-2,1.18E2,5E-1,1.139E3,9.45E1,7.037227E0,1.5927856E-1,5.6797545E-2,9E1,7.2625103E0,5.2941527E-2,5E-1,8.25E1,1.2997524E-1,3.930018E-2,1.2053621E-2,1.5921707E-1,5.6828044E-2,9.135076E-2,1.5574064E-2],"split_indices":[1,0,12,3,0,0,0,16,1,0,2,0,0,0,2,0,42,0,0,0,0,0,0,0,0],"split_type":[0,0,0,0,0,0,0,0,0,0,0,0,0,0,0,0,0,0,0,0,0,0,0,0,0],"sum_hessian":[9E1,2E0,8.8E1,5.9E1,2.9E1,2E0,5.7E1,3.1E1,2.6E1,1.6E1,1.5E1,2.4E1,2E0,9E0,7E0,2E0,1.3E1,6E0,3E0,4E0,3E0,1.1E1,2E0,2E0,4E0],"tree_param":{"num_deleted":"0","num_feature":"53","num_nodes":"25","size_leaf_vector":"0"}},{"base_weights":[2.840541E1,3.9062834E0,2.8897236E1,1.32408495E1,2.942962E1,4.0512857E0,1.7214321E1,2.6439543E1,3.4237507E1,2.0805979E1,2.9856699E1,1.3790797E1,2.7333172E1,3.0596695E1,1.1076218E1,1.824697E1,3.6595888E0,3.1409685E1,1.1325086E1,1.0486987E1,2.5904367E1,1.8214787E1,3.103059E0],"categories":[],"categories_nodes":[],"categories_segments":[],"categories_sizes":[],"default_left":[1,0,1,1,1,0,0,1,0,1,1,1,0,1,0,1,0,0,0,1,0,0,0],"id":66,"left_children":[1,-1,3,5,7,-1,-1,9,-1,11,13,15,-1,17,-1,19,-1,-1,-1,21,-1,-1,-1],"loss_changes":[9.533594E2,0E0,2.3775E2,1.028645E2,4.9492188E1,0E0,0E0,3.1476953E2,0E0,7.142324E2,2.2222656E1,6.039309E2,0E0,2.7960938E1,0E0,2.5888208E2,0E0,0E0,0E0,3.430711E2,0E0,0E0,0E0],"parents":[2147483647,0,0,2,2,3,3,4,4,7,7,9,9,10,10,11,11,13,13,15,15,19,19],"right_children":[2,-1,4,6,8,-1,-1,10,-1,12,14,16,-1,18,-1,20,-1,-1,-1,22,-1,-1,-1],"split_conditions":[4.955E2,1.9531416E-2,5E-1,1.5E0,5E-1,2.0256428E-2,8.60716E-2,1.08E2,1.7118753E-1,5E-1,1.5E0,9.45E1,1.3666585E-1,1.139E3,5.5381086E-2,9E1,1.8297944E-2,1.5704842E-1,5.6625426E-2,8.25E1,1.2952183E-1,9.107393E-2,1.5515295E-2],"split_indices":[1,0,3,5,12,0,0,0,0,16,21,0,0,1,0,0,0,0,0,0,0,0,0],"split_type":[0,0,0,0,0,0,0,0,0,0,0,0,0,0,0,0,0,0,0,0,0,0,0],"sum_hessian":[9E1,2E0,8.8E1,4E0,8.4E1,2E0,2E0,5.7E1,2.7E1,2.5E1,3.2E1,1.4E1,1.1E1,3E1,2E0,9E0,5E0,2.8E1,2E0,6E0,3E0,2E0,4E0],"tree_param":{"num_deleted":"0","num_feature":"53","num_nodes":"23","size_leaf_vector":"0"}},{"base_weights":[2.8277012E1,3.8944461E0,2.87664E1,2.567417E1,3.3686043E1,4.1139727E0,2.6322065E1,2.1636456E1,3.0612411E1,1.3805667E1,2.8222054E1,3.1559658E1,1.1290768E1,1.8185535E1,6.208075E0,1.0473392E1,2.9752258E1,1.0453534E1,2.5814005E1,7.7833896E0,2.3895485E0,3.1573833E1,1.1242163E1,1.815959E1,3.0913494E0],"categories":[],"categories_nodes":[],"categories_segments":[],"categories_sizes":[],"default_left":[1,0,1,1,0,0,1,1,1,1,1,0,0,1,1,0,1,1,0,0,0,0,0,0,0],"id":67,"left_children":[1,-1,3,5,-1,-1,7,9,11,13,15,-1,-1,17,19,-1,21,23,-1,-1,-1,-1,-1,-1,-1],"loss_changes":[9.438125E2,0E0,2.3417188E2,7.015508E2,0E0,0E0,3.109453E2,1.1592129E3,3.642383E1,4.2891602E2,3.7601562E1,0E0,0E0,2.5672632E2,2.5749176E1,0E0,2.0716797E1,3.4117493E2,0E0,0E0,0E0,0E0,0E0,0E0,0E0],"parents":[2147483647,0,0,2,2,3,3,6,6,7,7,8,8,9,9,10,10,13,13,14,14,16,16,17,17],"right_children":[2,-1,4,6,-1,-1,8,10,12,14,16,-1,-1,18,20,-1,22,24,-1,-1,-1,-1,-1,-1,-1],"split_conditions":[4.955E2,1.947223E-2,5E-1,5E-1,1.6843021E-1,2.0569863E-2,1.18E2,5E-1,1.139E3,9.45E1,7.037227E0,1.5779829E-1,5.645384E-2,9E1,7.2625103E0,5.2366957E-2,5E-1,8.25E1,1.2907003E-1,3.8916945E-2,1.1947743E-2,1.5786916E-1,5.6210812E-2,9.0797946E-2,1.5456746E-2],"split_indices":[1,0,12,3,0,0,0,16,1,0,2,0,0,0,2,0,42,0,0,0,0,0,0,0,0],"split_type":[0,0,0,0,0,0,0,0,0,0,0,0,0,0,0,0,0,0,0,0,0,0,0,0,0],"sum_hessian":[9E1,2E0,8.8E1,5.9E1,2.9E1,2E0,5.7E1,3.1E1,2.6E1,1.6E1,1.5E1,2.4E1,2E0,9E0,7E0,2E0,1.3E1,6E0,3E0,4E0,3E0,1.1E1,2E0,2E0,4E0],"tree_param":{"num_deleted":"0","num_feature":"53","num_nodes":"25","size_leaf_vector":"0"}},{"base_weights":[2.8149515E1,3.882645E0,2.8636484E1,1.3129405E1,2.9163565E1,3.9817362E0,1.7104885E1,2.944825E1,1.0488787E1,1.0878177E1,2.9731134E1],"categories":[],"categories_nodes":[],"categories_segments":[],"categories_sizes":[],"default_left":[1,0,1,1,1,0,0,1,0,0,0],"id":68,"left_children":[1,-1,3,5,7,-1,-1,9,-1,-1,-1],"loss_changes":[9.343828E2,0E0,2.3211719E2,1.0420264E2,5.1953125E1,0E0,0E0,1.7132812E1,0E0,0E0,0E0],"parents":[2147483647,0,0,2,2,3,3,4,4,7,7],"right_children":[2,-1,4,6,8,-1,-1,10,-1,-1,-1],"split_conditions":[4.955E2,1.9413223E-2,5E-1,1.5E0,5E-1,1.990868E-2,8.5524425E-2,5.185E2,5.2443933E-2,5.439088E-2,1.4865567E-1],"split_indices":[1,0,3,5,38,0,0,1,0,0,0],"split_type":[0,0,0,0,0,0,0,0,0,0,0],"sum_hessian":[9E1,2E0,8.8E1,4E0,8.4E1,2E0,2E0,8.2E1,2E0,2E0,8E1],"tree_param":{"num_deleted":"0","num_feature":"53","num_nodes":"11","size_leaf_vector":"0"}},{"base_weights":[2.8014183E1,3.8708794E0,2.8498556E1,2.542523E1,3.3392067E1,4.0695567E0,2.6067099E1,2.1416658E1,3.0327976E1,1.3631669E1,2.7971176E1,3.126895E1,1.1166459E1,1.8003567E1,6.071221E0,1.0380125E1,2.9487816E1,1.0310919E1,2.5620243E1,7.6599784E0,2.2774997E0,3.1299704E1,1.1118002E1,1.8043032E1,2.9674907E0],"categories":[],"categories_nodes":[],"categories_segments":[],"categories_sizes":[],"default_left":[1,0,1,1,0,0,1,1,1,1,1,0,0,1,1,0,1,1,0,0,0,0,0,0,0],"id":69,"left_children":[1,-1,3,5,-1,-1,7,9,11,13,15,-1,-1,17,19,-1,21,23,-1,-1,-1,-1,-1,-1,-1],"loss_changes":[9.2427344E2,0E0,2.3932812E2,6.8865234E2,0E0,0E0,3.1083594E2,1.1524854E3,3.8316406E1,4.2973145E2,3.695996E1,0E0,0E0,2.6008276E2,2.7347229E1,0E0,2.3574219E1,3.4489014E2,0E0,0E0,0E0,0E0,0E0,0E0,0E0],"parents":[2147483647,0,0,2,2,3,3,6,6,7,7,8,8,9,9,10,10,13,13,14,14,16,16,17,17],"right_children":[2,-1,4,6,-1,-1,8,10,12,14,16,-1,-1,18,20,-1,22,24,-1,-1,-1,-1,-1,-1,-1],"split_conditions":[4.955E2,1.9354397E-2,5E-1,5E-1,1.6696033E-1,2.0347783E-2,1.18E2,5E-1,1.139E3,9.45E1,7.037227E0,1.5634474E-1,5.5832293E-2,9E1,7.2625103E0,5.1900625E-2,5E-1,8.25E1,1.2810121E-1,3.8299892E-2,1.1387498E-2,1.5649852E-1,5.5590007E-2,9.0215154E-2,1.4837453E-2],"split_indices":[1,0,12,3,0,0,0,16,1,0,2,0,0,0,2,0,42,0,0,0,0,0,0,0,0],"split_type":[0,0,0,0,0,0,0,0,0,0,0,0,0,0,0,0,0,0,0,0,0,0,0,0,0],"sum_hessian":[9E1,2E0,8.8E1,5.9E1,2.9E1,2E0,5.7E1,3.1E1,2.6E1,1.6E1,1.5E1,2.4E1,2E0,9E0,7E0,2E0,1.3E1,6E0,3E0,4E0,3E0,1.1E1,2E0,2E0,4E0],"tree_param":{"num_deleted":"0","num_feature":"53","num_nodes":"25","size_leaf_vector":"0"}},{"base_weights":[2.7887861E1,3.8591492E0,2.8369839E1,2.5314905E1,3.323227E1,4.0572248E0,2.5953688E1,2.0423092E1,2.9308487E1,1.3516919E1,2.685516E1,3.0035921E1,1.086312E1,1.7942978E1,3.4914603E0,3.083231E1,1.1132622E1,1.0278072E1,2.553087E1,1.7988356E1,2.9562929E0],"categories":[],"categories_nodes":[],"categories_segments":[],"categories_sizes":[],"default_left":[1,0,1,1,0,0,1,1,1,1,0,1,0,1,0,0,0,1,0,0,0],"id":70,"left_children":[1,-1,3,5,-1,-1,7,9,11,13,-1,15,-1,17,-1,-1,-1,19,-1,-1,-1],"loss_changes":[9.1503125E2,0E0,2.3285938E2,6.819219E2,0E0,0E0,3.035586E2,6.96375E2,2.2646484E1,5.974695E2,0E0,2.4984375E1,0E0,2.5792236E2,0E0,0E0,0E0,3.429743E2,0E0,0E0,0E0],"parents":[2147483647,0,0,2,2,3,3,6,6,7,7,8,8,9,9,11,11,13,13,17,17],"right_children":[2,-1,4,6,-1,-1,8,10,12,14,-1,16,-1,18,-1,-1,-1,20,-1,-1,-1],"split_conditions":[4.955E2,1.9295746E-2,5E-1,5E-1,1.6616134E-1,2.0286124E-2,1.08E2,5E-1,1.5E0,9.45E1,1.342758E-1,1.139E3,5.43156E-2,9E1,1.74573E-2,1.5416154E-1,5.566311E-2,8.25E1,1.2765434E-1,8.994178E-2,1.4781464E-2],"split_indices":[1,0,12,3,0,0,0,16,21,0,0,1,0,0,0,0,0,0,0,0,0],"split_type":[0,0,0,0,0,0,0,0,0,0,0,0,0,0,0,0,0,0,0,0,0],"sum_hessian":[9E1,2E0,8.8E1,5.9E1,2.9E1,2E0,5.7E1,2.5E1,3.2E1,1.4E1,1.1E1,3E1,2E0,9E0,5E0,2.8E1,2E0,6E0,3E0,2E0,4E0],"tree_param":{"num_deleted":"0","num_feature":"53","num_nodes":"21","size_leaf_vector":"0"}},{"base_weights":[2.7760582E1,3.847455E0,2.824014E1,2.5202744E1,3.307324E1,4.04493E0,2.5838373E1,2.1238352E1,3.0050491E1,1.3531716E1,2.772393E1,3.0978344E1,1.1098886E1,1.7882591E1,6.0130134E0,1.0267291E1,2.9232027E1,1.0245331E1,2.5441809E1,7.5851502E0,2.2573752E0,3.103817E1,1.0984396E1,1.7933846E1,2.945137E0],"categories":[],"categories_nodes":[],"categories_segments":[],"categories_sizes":[],"default_left":[1,0,1,1,0,0,1,1,1,1,1,0,0,1,1,0,1,1,0,0,0,0,0,0,0],"id":71,"left_children":[1,-1,3,5,-1,-1,7,9,11,13,15,-1,-1,17,19,-1,21,23,-1,-1,-1,-1,-1,-1,-1],"loss_changes":[9.057344E2,0E0,2.2734375E2,6.750781E2,0E0,0E0,2.9992188E2,1.1267217E3,3.308008E1,4.2614697E2,3.8945312E1,0E0,0E0,2.5577856E2,2.674704E1,0E0,2.8079102E1,3.410691E2,0E0,0E0,0E0,0E0,0E0,0E0,0E0],"parents":[2147483647,0,0,2,2,3,3,6,6,7,7,8,8,9,9,10,10,13,13,14,14,16,16,17,17],"right_children":[2,-1,4,6,-1,-1,8,10,12,14,16,-1,-1,18,20,-1,22,24,-1,-1,-1,-1,-1,-1,-1],"split_conditions":[4.955E2,1.9237274E-2,5E-1,5E-1,1.6536619E-1,2.022465E-2,1.18E2,5E-1,1.139E3,9.45E1,7.037227E0,1.5489171E-1,5.5494428E-2,9E1,7.2625103E0,5.1336452E-2,5E-1,8.25E1,1.2720904E-1,3.792575E-2,1.1286876E-2,1.5519084E-1,5.4921977E-2,8.966923E-2,1.4725685E-2],"split_indices":[1,0,12,3,0,0,0,16,1,0,2,0,0,0,2,0,19,0,0,0,0,0,0,0,0],"split_type":[0,0,0,0,0,0,0,0,0,0,0,0,0,0,0,0,0,0,0,0,0,0,0,0,0],"sum_hessian":[9E1,2E0,8.8E1,5.9E1,2.9E1,2E0,5.7E1,3.1E1,2.6E1,1.6E1,1.5E1,2.4E1,2E0,9E0,7E0,2E0,1.3E1,6E0,3E0,4E0,3E0,1.1E1,2E0,2E0,4E0],"tree_param":{"num_deleted":"0","num_feature":"53","num_nodes":"25","size_leaf_vector":"0"}},{"base_weights":[2.7635412E1,3.8357959E0,2.8112598E1,1.2878546E1,2.8630701E1,3.8001714E0,1.6883553E1,2.89114E1,1.0266388E1,1.0691473E1,2.9188658E1],"categories":[],"categories_nodes":[],"categories_segments":[],"categories_sizes":[],"default_left":[1,0,1,1,1,0,0,1,0,0,0],"id":72,"left_children":[1,-1,3,5,7,-1,-1,9,-1,-1,-1],"loss_changes":[8.966953E2,0E0,2.2547656E2,1.09293945E2,5.3851562E1,0E0,0E0,1.51171875E1,0E0,0E0,0E0],"parents":[2147483647,0,0,2,2,3,3,4,4,7,7],"right_children":[2,-1,4,6,8,-1,-1,10,-1,-1,-1],"split_conditions":[4.955E2,1.917898E-2,5E-1,1.5E0,5E-1,1.9000856E-2,8.441776E-2,5.185E2,5.1331937E-2,5.3457364E-2,1.4594328E-1],"split_indices":[1,0,3,5,38,0,0,1,0,0,0],"split_type":[0,0,0,0,0,0,0,0,0,0,0],"sum_hessian":[9E1,2E0,8.8E1,4E0,8.4E1,2E0,2E0,8.2E1,2E0,2E0,8E1],"tree_param":{"num_deleted":"0","num_feature":"53","num_nodes":"11","size_leaf_vector":"0"}},{"base_weights":[2.7502552E1,3.8241725E0,2.797719E1,2.4958357E1,3.2784626E1,4.001334E0,2.558807E1,2.1022572E1,2.9771263E1,1.3360998E1,2.7477531E1,3.0692966E1,1.0976803E1,1.7703867E1,5.8789706E0,1.0175754E1,2.8972292E1,1.0105412E1,2.5251238E1,7.4642324E0,2.14768E0,3.0773657E1,1.0844786E1,1.7819077E1,2.8238776E0],"categories":[],"categories_nodes":[],"categories_segments":[],"categories_sizes":[],"default_left":[1,0,1,1,0,0,1,1,1,1,1,0,0,1,1,0,1,1,0,0,0,0,0,0,0],"id":73,"left_children":[1,-1,3,5,-1,-1,7,9,11,13,15,-1,-1,17,19,-1,21,23,-1,-1,-1,-1,-1,-1,-1],"loss_changes":[8.870078E2,0E0,2.3228125E2,6.6266797E2,0E0,0E0,2.998086E2,1.1201367E3,3.4933594E1,4.2683252E2,3.829004E1,0E0,0E0,2.5896167E2,2.8255035E1,0E0,3.310254E1,3.4460657E2,0E0,0E0,0E0,0E0,0E0,0E0,0E0],"parents":[2147483647,0,0,2,2,3,3,6,6,7,7,8,8,9,9,10,10,13,13,14,14,16,16,17,17],"right_children":[2,-1,4,6,-1,-1,8,10,12,14,16,-1,-1,18,20,-1,22,24,-1,-1,-1,-1,-1,-1,-1],"split_conditions":[4.955E2,1.9120863E-2,5E-1,5E-1,1.6392313E-1,2.000667E-2,1.18E2,5E-1,1.139E3,9.45E1,7.037227E0,1.5346482E-1,5.4884013E-2,9E1,7.2625103E0,5.0878767E-2,5E-1,8.25E1,1.2625618E-1,3.732116E-2,1.07384E-2,1.5386829E-1,5.422393E-2,8.9095384E-2,1.4119388E-2],"split_indices":[1,0,12,3,0,0,0,16,1,0,2,0,0,0,2,0,42,0,0,0,0,0,0,0,0],"split_type":[0,0,0,0,0,0,0,0,0,0,0,0,0,0,0,0,0,0,0,0,0,0,0,0,0],"sum_hessian":[9E1,2E0,8.8E1,5.9E1,2.9E1,2E0,5.7E1,3.1E1,2.6E1,1.6E1,1.5E1,2.4E1,2E0,9E0,7E0,2E0,1.3E1,6E0,3E0,4E0,3E0,1.1E1,2E0,2E0,4E0],"tree_param":{"num_deleted":"0","num_feature":"53","num_nodes":"25","size_leaf_vector":"0"}},{"base_weights":[2.7378534E1,3.812584E0,2.7850824E1,2.4850054E1,3.2627735E1,3.9892087E0,2.547674E1,2.0047205E1,2.8770342E1,1.32483015E1,2.6385569E1,2.9485418E1,1.0654178E1,1.7644308E1,3.3274012E0,1.01449175E1,2.8258665E1,3.0265526E1,1.094354E1,1.0073265E1,2.516315E1,1.776508E1,2.8132212E0],"categories":[],"categories_nodes":[],"categories_segments":[],"categories_sizes":[],"default_left":[1,0,1,1,0,0,1,1,1,1,1,1,0,1,0,0,0,0,0,1,0,0,0],"id":74,"left_children":[1,-1,3,5,-1,-1,7,9,11,13,15,17,-1,19,-1,-1,-1,-1,-1,21,-1,-1,-1],"loss_changes":[8.781328E2,0E0,2.2603125E2,6.561875E2,0E0,0E0,2.9276953E2,6.789375E2,2.2998047E1,5.9094604E2,1.484375E0,2.2164062E1,0E0,2.568152E2,0E0,0E0,0E0,0E0,0E0,3.4268292E2,0E0,0E0,0E0],"parents":[2147483647,0,0,2,2,3,3,6,6,7,7,8,8,9,9,10,10,11,11,13,13,19,19],"right_children":[2,-1,4,6,-1,-1,8,10,12,14,16,18,-1,20,-1,-1,-1,-1,-1,22,-1,-1,-1],"split_conditions":[4.955E2,1.906292E-2,5E-1,5E-1,1.6313867E-1,1.9946042E-2,1.08E2,5E-1,1.5E0,9.45E1,7.061982E0,1.139E3,5.3270888E-2,9E1,1.6637005E-2,5.0724585E-2,1.4129332E-1,1.5132762E-1,5.4717697E-2,8.25E1,1.2581575E-1,8.88254E-2,1.4066106E-2],"split_indices":[1,0,12,3,0,0,0,16,21,0,2,1,0,0,0,0,0,0,0,0,0,0,0],"split_type":[0,0,0,0,0,0,0,0,0,0,0,0,0,0,0,0,0,0,0,0,0,0,0],"sum_hessian":[9E1,2E0,8.8E1,5.9E1,2.9E1,2E0,5.7E1,2.5E1,3.2E1,1.4E1,1.1E1,3E1,2E0,9E0,5E0,2E0,9E0,2.8E1,2E0,6E0,3E0,2E0,4E0],"tree_param":{"num_deleted":"0","num_feature":"53","num_nodes":"23","size_leaf_vector":"0"}},{"base_weights":[2.725444E1,3.8010306E0,2.7724379E1,2.4741255E1,3.24716E1,3.9771202E0,2.5364891E1,2.0849962E1,2.9498877E1,1.3263075E1,2.7239424E1,3.0407711E1,1.09103775E1,1.7584953E1,5.82243E0,1.0114176E1,2.8715094E1,1.0041222E1,2.5075373E1,7.391184E0,2.128581E0,3.051055E1,1.0710927E1,1.7711245E1,2.8026052E0],"categories":[],"categories_nodes":[],"categories_segments":[],"categories_sizes":[],"default_left":[1,0,1,1,0,0,1,1,1,1,1,0,0,1,1,0,1,1,0,0,0,0,0,0,0],"id":75,"left_children":[1,-1,3,5,-1,-1,7,9,11,13,15,-1,-1,17,19,-1,21,23,-1,-1,-1,-1,-1,-1,-1],